6
    2
        64
            768
            4 -3 -3 -1 -1 2 2 1 -33 -8 -17 22 -24 -31 -4 -26 -38 1 -19 7 -30 1 -23 23 -8 -3 -14 1 -18 -11 -21 3 -7 6 -16 3 -14 -9 -16 0 -13 27 -24 -7 -42 -7 -15 -12 7 22 -16 -15 2 -8 -29 -7 -3 1 0 4 -4 1 -2 0 -5 -23 -26 13 -16 -30 18 19 -1 -41 -2 -5 -37 2 -42 -16 12 28 -5 -5 2 -22 -29 -10 -2 -10 -16 1 1 -37 2 -32 -42 -10 -23 -30 -27 -26 -23 -48 -35 -43 -44 -25 -39 -12 -26 0 -16 -63 -29 -27 -53 -38 -42 -36 -45 -66 -48 -10 -56 -7 -48 -13 -42 -54 -39 3 0 7 -14 -24 -20 -10 -13 -31 -29 -10 -20 -48 -50 -12 -47 3 -34 -21 -33 3 -19 -17 -7 -2 6 -51 1 -25 -25 12 -20 21 -8 -16 4 -31 -35 -3 -15 -19 -22 -38 -32 -18 -20 -26 -31 -19 -43 -23 -24 -4 -29 -9 -13 -3 -31 -28 10 22 -23 -28 -20 -30 -28 -24 -50 -28 -2 -4 -10 1 -58 -33 -17 -13 -62 -49 -19 -31 -56 -70 -69 -56 -55 -49 -3 -22 -60 -47 -61 -70 -31 -38 -27 -41 -52 -47 -53 -28 -70 -41 -43 -49 -57 -38 -105 -1 -50 -19 -23 -43 -46 -24 -41 11 -22 -12 -21 -38 -23 -35 -28 -24 -52 -42 -10 -31 -44 -40 -35 -51 -40 -33 -26 -69 -43 -43 -69 -63 -33 -29 -46 -41 -28 -42 -34 -9 -29 -69 -46 -51 -25 -43 -56 -57 -66 -107 -77 -66 -48 -47 -61 -84 -29 -95 -63 -65 -46 -52 -68 -61 -41 -28 -27 -29 -53 -29 -40 -38 -77 -30 -32 -78 -84 -47 -59 -36 12 11 26 20 14 1 14 7 51 -13 3 7 23 10 13 19 16 18 6 -9 0 0 2 -3 26 8 22 19 -3 18 -1 12 -6 22 20 16 8 10 6 17 20 14 16 4 1 10 14 21 -13 -1 -13 12 14 11 11 26 46 6 29 -5 2 13 19 9 2 3 0 4 3 -3 3 -4 -19 17 26 -22 -4 6 2 8 -7 -33 -3 -18 -20 -11 -5 -12 -6 0 -5 -8 -10 -21 -12 -13 -24 1 -11 23 -34 27 8 -19 -21 -12 -12 -18 -35 14 -9 9 34 24 23 -12 -9 5 27 -2 2 2 -2 4 -1 3 -4 -2 34 52 7 -15 -9 -8 32 42 -13 69 34 37 -17 9 -36 6 36 12 30 16 -12 11 38 24 14 42 8 19 13 30 -50 19 -13 19 -6 15 19 -10 -9 -23 -23 16 5 15 20 41 -5 -6 15 30 -6 10 -11 50 51 -48 -35 4 14 -9 -2 49 -1 7 25 -1 47 -5 14 31 37 12 11 26 17 37 32 8 -10 16 38 5 33 14 33 14 13 -23 8 20 31 11 15 34 7 7 15 4 28 18 0 -16 4 5 -8 21 -19 3 16 -14 13 5 36 20 39 32 -10 25 18 3 39 25 -2 0 22 40 -1 -24 44 15 -6 13 29 19 22 29 8 7 37 3 17 -11 31 5 24 32 40 18 35 8 4 24 51 2 29 1 27 24 30 33 18 25 18 19 37 37 48 25 24 15 10 13 25 27 25 29 25 41 2 14 20 19 30 13 20 1 8 1 25 8 4 15 -17 7 74 59 37 75 25 56 4 57 55 57 46 27 -4 67 11 23 58 27 51 45 -12 -10 17 48 62 41 35 41 26 16 48 4 32 39 40 75 29 56 33 67 34 21 39 90 61 55 -7 16 7 65 50 72 8 69 13 26 4 -12 48 61 30 53 -25 13 1 6 23 24 9 -9 2 6 16 24 19 18 20 23 25 -26 17 3 1 9 0 16 24 1 8 16 5 16 16 14 -20 9 18 1 8 4 -4 11 -22 23 27 18 -16 11 5 8 22 29 52 14 15 -1 28 -2 28 5 1 20 3 22 17 50
            768
            -4 3 -4 0 1 -1 3 3 19 -4 3 -56 -12 11 -5 -22 4 -12 -2 -13 7 11 1 -29 5 -19 0 -30 -10 -2 -24 -15 18 7 -6 -18 -12 -6 -1 -22 14 -11 6 -29 -37 0 8 -17 18 -11 1 -40 -4 7 -2 -11 2 -2 4 -2 -4 -2 -4 4 -8 -8 -16 -40 -25 -12 -45 -18 5 -12 -42 -5 -10 -32 -38 -20 3 -30 -27 -19 -12 -22 -14 23 -3 -18 -3 -16 -28 -29 -16 -21 -16 -26 -16 -28 5 -23 -56 -37 -16 -34 -17 -8 -17 -20 -15 -41 -27 -11 -27 -15 -20 -27 -25 -23 -26 -19 -26 -18 -35 -34 -31 -12 -38 -24 -20 -6 -34 -40 -13 -26 -34 -14 -14 -12 -22 -10 3 -24 -21 -26 -45 -23 -6 -5 -9 -22 -30 -39 -33 -33 -7 -6 -24 -6 -37 -13 -25 -26 -15 -16 -4 -11 -43 -12 -11 -10 -34 -34 -5 -43 0 -20 -30 -27 -28 -16 -30 -51 -39 -26 -40 -25 -18 -11 -17 -46 -17 -40 -41 -48 -28 -41 -33 -58 -24 -19 -21 -46 -18 -41 -26 -29 -36 -43 -45 -65 -19 -49 -42 -39 -16 -19 -46 -43 -46 -28 -27 -37 -21 -57 -29 -49 -20 -30 -28 -46 -36 -60 -44 -47 -38 -46 -48 -42 -15 -28 -46 -43 -18 -32 1 -39 -31 -45 -46 -44 -37 -34 -32 -48 -53 -59 -46 -36 -46 -63 -63 -63 -54 -75 -31 -36 -47 -73 -60 -64 -47 -68 -55 -61 -56 -58 -61 -58 -57 -46 -62 -63 -55 -52 -53 -51 -85 -54 -45 -65 -53 -56 -58 -80 -44 -70 -59 -77 -49 -50 -62 -60 -37 -67 -33 -45 -38 -44 -36 -42 -38 -57 -30 -63 -76 -68 -43 -65 21 7 2 10 -1 5 -16 13 23 8 25 12 -1 9 15 -2 18 10 10 0 4 -2 -6 10 5 -14 11 -5 16 19 -4 17 -2 13 31 2 -1 5 3 -14 -9 8 12 -9 12 4 9 10 40 7 5 10 19 -4 10 0 -26 12 2 -11 12 18 5 3 1 3 -2 -1 3 -2 4 1 3 -4 -6 -4 4 -4 14 4 21 -3 0 6 15 -4 3 8 23 11 7 5 -9 9 4 2 5 14 -11 5 10 -10 0 15 19 15 -18 7 3 -3 -5 9 -16 -26 24 1 29 10 18 1 -4 -4 -3 1 -2 2 0 -2 7 19 16 42 30 25 18 42 44 -29 22 8 30 -1 32 28 14 39 -18 7 -7 17 32 16 13 13 5 9 39 10 -4 4 49 13 5 4 3 17 23 34 17 -8 -12 53 11 22 -1 17 32 11 21 20 -27 -6 14 3 -17 -13 20 14 25 35 29 -10 16 -3 14 32 9 0 6 10 22 0 23 22 17 21 3 15 7 18 10 10 21 10 -12 45 5 12 13 6 15 13 0 5 31 -1 16 18 35 16 12 17 3 11 19 7 1 27 16 -4 37 -6 0 37 16 22 25 16 -5 -22 -5 17 7 4 25 45 22 48 31 49 13 27 43 38 19 23 52 21 26 31 57 38 33 17 44 33 44 21 38 39 10 23 37 42 13 19 37 25 5 24 29 17 44 19 44 16 9 35 32 33 37 28 31 35 38 17 37 36 31 45 22 22 27 33 41 49 22 25 34 23 66 72 62 74 88 52 61 44 71 46 49 62 72 70 35 68 60 42 55 69 67 55 50 54 64 51 48 55 70 72 46 87 66 44 37 57 73 50 45 51 49 62 45 69 58 60 34 54 50 36 67 47 41 68 36 60 76 62 37 20 43 80 61 58 0 5 26 7 11 3 6 27 17 -1 18 3 27 16 10 12 9 18 12 10 9 -1 2 -19 14 2 9 7 23 11 -5 -2 11 -6 -3 -4 15 4 22 18 6 0 15 -9 -17 10 -8 -5 -4 7 6 12 -13 -11 6 6 19 -7 2 -1 -5 0 19 -19
            768
            2 3 1 1 -3 0 0 2 -17 -27 5 -9 4 2 6 -36 -14 -18 -31 -20 -12 -2 8 -2 -32 -14 -21 -27 6 -5 9 2 -13 -3 -16 -20 -4 -1 -16 -13 -20 1 -6 -21 6 -3 -12 -13 -7 -2 -18 -24 -4 4 2 -2 3 2 -2 4 4 4 -2 3 -7 -33 -22 -17 -13 -25 -7 -8 -42 -37 -25 -30 -7 -33 -10 -23 -10 -19 -40 -10 -37 -40 -17 3 -14 -45 -34 -24 -22 -25 -29 -31 -19 -18 -27 -24 -18 5 -39 -12 -1 -59 -25 -25 -9 -20 -11 -28 -63 -44 1 -26 -37 -17 -30 0 -32 -30 -13 -38 -19 -5 -21 -22 -9 -19 -31 -31 -42 -17 -41 -38 -15 -34 -23 -50 -7 3 -26 -29 -42 -24 -19 -21 -35 -20 -13 -19 -25 -34 -24 -36 -18 -24 -36 -38 -33 -46 -32 -9 -8 -21 -21 -22 -19 -11 -9 -14 -19 -11 -17 -26 4 -38 -28 -21 -14 -12 -22 -3 -16 -30 -24 0 -21 -11 -26 -35 -66 -38 -38 -54 -26 -43 -44 -25 -44 -22 -50 -28 -11 -16 -25 -40 -40 -27 -35 -16 -42 -30 -30 -29 -46 -45 -13 -48 -41 -21 -47 -18 -37 -49 -28 -48 -11 -31 -34 -41 2 -44 -23 -25 -15 -31 -37 -21 -29 -18 -34 -23 -28 -21 -55 -12 -35 -28 -19 -22 -16 -22 -34 -18 -59 -64 -57 -48 -42 -42 -45 -74 -41 -38 -26 -96 -53 -52 -24 -36 -92 -66 -56 -51 -50 -60 -71 -77 -74 -69 -77 -54 -66 -62 -46 -70 -55 -74 -65 -65 -61 -67 -52 -66 -36 -63 -56 -56 -26 -42 -50 -39 -85 -73 -70 -53 -54 -51 -57 -46 -67 -24 -24 -63 -69 -45 -78 -47 24 1 -24 -5 13 11 14 -21 2 7 29 2 -10 -31 5 26 31 5 11 -7 2 9 22 11 4 10 8 12 5 -2 9 27 1 -1 -6 13 23 13 -8 23 23 8 6 30 23 17 -1 20 -12 23 22 9 12 5 -6 12 0 -13 -6 19 15 4 -4 14 2 -3 4 -3 3 3 3 -1 -5 -1 5 3 4 14 5 -5 -10 19 8 0 8 26 8 10 0 9 -1 9 4 -14 12 9 12 12 13 9 7 8 -4 -4 -4 -14 1 12 7 -1 -3 -9 0 7 -6 -17 -2 -28 1 -10 -4 1 -4 1 0 -3 2 -4 -38 15 23 18 18 16 1 13 20 16 30 17 39 -5 23 -6 28 21 19 19 39 35 20 -7 28 34 40 -9 28 5 42 19 19 34 27 25 9 31 22 18 20 6 27 27 49 23 8 20 38 -7 8 20 42 33 17 22 38 25 24 34 18 -14 24 17 14 29 2 10 3 19 33 29 -1 20 18 20 32 12 26 23 13 18 16 12 28 43 46 18 14 11 19 29 22 26 0 6 6 2 22 29 29 15 13 -13 9 35 33 32 35 -9 22 22 29 5 42 -24 16 35 19 12 15 26 22 -8 25 5 24 48 38 34 30 26 43 25 25 31 30 22 13 20 40 25 28 21 32 36 24 33 11 42 41 56 23 47 19 35 39 7 42 51 38 44 28 42 19 34 37 21 16 12 39 50 47 14 28 36 44 30 38 40 34 11 39 39 31 37 37 48 23 50 50 44 46 14 77 25 32 49 66 60 86 27 73 51 42 34 84 64 38 82 52 44 25 68 53 78 83 53 55 58 79 45 45 53 71 46 61 81 36 52 48 38 55 32 51 79 48 46 42 62 66 48 54 44 67 45 69 48 84 47 48 46 49 68 62 72 3 -14 22 5 3 6 10 -4 11 12 4 14 18 19 3 9 4 18 -6 5 17 16 2 1 3 14 -11 1 14 6 0 6 -3 15 21 3 22 1 1 -1 -3 3 6 14 19 14 0 4 19 2 -22 28 -8 -22 -32 20 2 -5 12 -4 16 -9 11 -5
            768
            -2 -1 1 2 3 4 -1 2 -2 11 1 5 3 24 0 26 17 8 16 18 10 16 -7 12 6 13 10 8 -3 21 6 18 8 8 11 10 0 18 9 13 11 5 -1 5 16 8 6 12 5 15 6 16 1 13 12 10 2 3 2 4 -2 0 -4 2 36 13 24 19 30 23 6 21 20 23 27 20 39 31 38 6 24 21 31 31 28 30 25 33 35 29 30 46 33 32 34 21 23 34 41 33 44 22 24 28 36 28 28 26 31 25 31 23 27 21 23 19 25 35 14 34 28 19 21 32 11 40 15 16 9 38 24 32 17 36 42 15 36 20 27 15 32 22 6 24 27 36 26 32 33 29 50 35 30 35 36 36 30 22 25 29 24 36 41 39 28 31 39 14 13 44 33 30 29 25 29 46 10 28 31 18 32 38 21 13 26 50 32 28 19 26 43 26 24 34 28 26 39 31 26 35 34 32 32 40 30 30 31 41 25 35 41 27 35 37 15 15 40 44 48 31 25 34 32 28 36 41 32 32 36 23 28 38 27 28 38 25 37 36 40 19 13 41 28 34 25 38 22 41 21 29 31 34 37 27 26 20 50 61 54 80 62 56 58 64 50 59 72 43 37 60 62 68 67 72 57 67 53 47 64 61 70 70 61 58 69 68 57 67 55 74 59 62 64 64 42 57 70 69 71 52 74 56 61 52 65 77 55 58 73 68 58 65 58 55 66 58 53 44 53 51 1 17 9 -6 24 9 1 3 4 1 13 2 19 3 -6 12 10 6 30 14 32 20 5 1 -8 8 18 20 1 17 0 1 -4 15 17 19 13 9 5 13 6 1 2 1 15 1 7 4 20 17 25 -8 4 -1 10 9 -9 0 -3 -4 9 2 19 9 3 -1 1 1 0 5 -3 1 -8 -11 -8 -14 4 -7 -21 -4 -6 -18 -17 -5 -1 -6 -20 -3 3 -13 -3 4 -2 0 -13 -1 -4 -8 1 -4 -2 -8 0 -20 -11 -2 -7 -8 -19 -14 -14 -9 -11 -1 -4 -25 -8 -10 5 -12 -2 -3 0 2 -3 0 0 4 3 -18 -21 -13 -5 -16 -19 -21 -19 -12 -17 -24 -17 -15 -27 -25 -18 -18 -30 -11 -16 -24 -12 -6 -16 -18 -23 -25 -36 -6 -7 -27 -21 -17 1 -19 -31 -30 -28 -21 -12 -26 -15 -26 -27 -32 -21 -21 -15 -13 -8 0 -31 -25 -21 -8 -12 1 -21 -17 -26 -19 -28 -3 -20 -25 -20 -19 -19 -33 0 -29 -15 -17 -10 -28 -29 -16 -19 -14 -8 -18 -20 -34 -35 -25 -10 -18 -21 -23 -18 -25 -29 -25 -17 -41 -27 -18 -29 -25 -31 -8 -36 -23 -16 -14 -19 -13 -26 -29 -16 -24 -26 -10 -25 -22 -28 -24 -24 -31 -34 -47 -35 -27 -36 -34 -16 -16 -30 -16 -28 -18 -28 -23 -34 -19 -17 -35 -23 -19 -29 -27 -26 -36 -20 -21 -36 -25 -21 -28 -17 -27 -37 -26 -23 -14 -20 -18 -20 -31 -23 -40 -23 -23 -34 -36 -22 -18 -17 -25 -20 -33 -18 -21 -26 -19 -21 -27 -25 -36 -30 -33 -14 -28 -25 -39 -22 -47 -36 -21 -22 -21 -61 -67 -46 -61 -60 -49 -50 -50 -57 -61 -59 -56 -58 -54 -53 -58 -58 -54 -49 -56 -60 -43 -49 -55 -66 -66 -38 -71 -52 -57 -62 -63 -42 -46 -46 -68 -56 -61 -59 -50 -64 -54 -38 -47 -65 -60 -50 -54 -53 -72 -39 -68 -73 -66 -71 -79 -55 -44 -56 -59 -65 -50 -49 -48 21 -29 1 8 9 11 -2 1 2 25 14 22 12 0 21 13 -10 1 7 19 11 9 4 8 2 16 24 23 3 18 11 8 20 23 3 8 2 14 -2 8 8 14 14 3 10 14 10 21 17 -9 0 22 -1 4 0 19 16 13 7 7 22 11 -2 11
            768
            0 3 -1 -3 -3 -3 4 -2 -6 15 10 -17 5 -1 -17 -7 -25 22 28 -4 -19 -4 -26 13 0 14 -1 -7 15 23 -16 8 -12 -6 5 0 -12 7 -25 -8 -24 6 15 6 9 3 -26 -3 -6 1 3 -17 1 2 -14 -4 -2 4 -4 -4 -1 -2 3 2 -19 -21 -28 -17 -38 -1 -6 -14 45 -14 -4 -3 -6 20 -33 -8 -35 -6 3 -11 -54 -14 -39 -31 -29 -10 -29 -5 -24 -6 -19 -17 -46 -33 -25 -31 -32 -7 -18 0 -3 -31 -18 -13 -20 -41 -9 -8 2 8 -30 -27 -2 -47 1 -15 -28 -20 -51 1 -43 -37 -9 -17 -13 -36 -26 -7 -17 -55 -7 -37 -30 -20 -27 -25 -27 -21 -8 -4 6 -5 -2 -24 -14 -38 -11 9 -22 -38 -18 -16 -9 -16 -15 -16 -21 -20 -15 -22 -10 -21 -14 -18 -4 -9 -18 -16 -26 -24 -29 -23 -15 -16 -14 -24 -27 -27 -4 -69 -7 -34 -22 7 -29 -23 -33 -25 -37 -27 -15 -37 -37 -11 -34 -29 -36 -39 -21 -49 -13 -23 -26 -41 -20 -28 -33 -32 -21 -6 -41 -70 -45 -37 -32 -30 -26 -36 -46 -42 -22 -45 -34 -39 -22 -29 -39 -27 -23 -13 -13 -35 -19 -30 -10 -34 -31 -38 0 -22 -36 -35 -14 -22 -33 -40 -31 -48 -69 -56 -38 -24 -42 -49 -31 -51 -22 -52 -58 -74 -84 -55 -69 -56 -80 -50 -47 -46 -67 -57 -44 -54 -28 -49 -30 -117 -63 -81 -39 -25 -62 -73 -57 -60 -56 -72 -62 -18 -36 -40 -43 -66 -59 -46 -35 -38 -42 -55 -42 -65 -80 -78 -62 -44 -56 -56 -43 -64 -52 -57 -64 -57 -74 -61 -75 -58 14 7 -18 0 -52 -1 -18 -44 10 12 23 15 33 -3 -3 13 -2 11 12 -6 4 1 -14 -24 5 -10 15 7 3 -3 -4 -8 20 -2 12 16 12 5 22 4 -16 11 -13 -1 13 11 4 24 15 18 -7 -21 -13 7 12 -14 -25 -11 -20 -16 -12 6 0 -5 1 3 4 -2 1 -2 4 1 7 -1 3 -4 1 15 22 0 0 6 16 3 0 2 6 -11 11 7 6 24 9 8 -8 -4 2 19 -8 9 6 -3 8 5 4 10 9 2 10 16 35 9 1 9 9 -14 -18 5 23 16 3 -2 -1 2 -4 4 1 0 -1 30 25 34 -2 12 31 32 17 30 11 21 18 11 3 32 9 -25 19 8 7 22 17 50 0 16 18 15 22 12 32 6 22 23 34 25 31 34 12 14 -13 4 37 33 28 32 41 22 21 26 46 32 -9 24 0 12 21 26 13 4 32 30 24 17 19 18 31 17 20 13 14 -4 33 14 24 23 27 26 11 -5 23 4 19 19 0 31 27 18 -10 6 23 31 26 14 41 -29 16 27 33 14 -1 41 14 21 22 40 32 27 4 17 10 -56 7 31 9 8 40 9 4 1 -22 -13 4 19 -9 30 33 3 33 38 43 32 29 38 15 30 45 28 25 31 43 27 44 36 29 47 39 29 14 54 39 18 48 1 28 40 45 50 15 34 40 29 44 29 39 9 35 2 25 45 27 20 30 48 21 37 54 64 55 31 39 55 53 55 39 27 30 39 35 40 39 31 70 75 58 46 44 12 27 56 56 52 40 61 65 57 51 73 93 47 64 60 47 49 80 52 64 42 60 55 52 49 70 56 55 33 68 53 50 56 90 61 62 75 45 57 59 69 68 52 53 47 37 45 47 78 53 65 46 53 45 59 77 79 55 22 33 -10 0 2 -16 10 -1 -22 -13 13 13 8 14 7 -9 -22 -28 15 16 2 0 13 23 4 14 -13 15 15 5 12 1 3 24 -1 10 -11 8 6 9 -27 19 3 4 -15 13 6 21 -16 -5 13 -2 -18 0 13 -47 6 -19 -39 8 10 6 3 -16 -8
            768
            -1 0 3 2 -3 -4 -2 1 17 5 11 26 23 6 10 19 9 7 29 25 15 19 21 10 13 21 14 5 13 14 15 19 7 14 10 20 19 12 12 13 14 9 19 7 13 23 10 8 20 8 16 23 -3 10 3 7 2 -4 0 -1 -4 -3 -2 3 30 22 16 19 13 6 18 9 26 1 18 6 23 37 28 28 15 31 32 32 46 42 34 24 4 17 29 35 51 46 31 23 12 39 36 31 33 24 25 20 21 28 29 27 32 31 27 -1 7 11 23 -4 25 24 21 31 25 9 12 -1 12 28 7 11 30 29 22 15 22 34 21 22 13 10 -1 38 21 29 22 15 26 34 25 33 30 6 29 20 7 38 29 32 25 44 38 24 27 -1 31 21 34 39 26 29 18 33 34 22 28 26 41 21 40 30 23 16 24 27 15 30 30 19 27 12 25 32 34 18 28 29 14 47 22 34 39 34 27 23 33 35 26 29 33 17 28 39 36 28 31 31 23 15 28 28 20 28 28 40 31 31 26 30 27 33 31 4 32 19 12 9 19 20 14 42 29 30 26 24 27 39 24 21 44 28 20 26 17 21 23 31 27 9 67 65 61 62 55 59 64 57 59 64 59 52 71 69 56 65 50 69 70 63 60 65 58 27 64 69 68 59 59 61 52 49 57 78 53 60 47 60 65 52 41 42 59 41 54 69 60 72 59 51 63 48 62 53 43 74 60 70 45 58 69 61 68 49 7 7 9 14 5 4 -8 5 -8 12 2 4 14 3 -5 8 2 23 11 19 16 15 10 12 15 17 15 17 5 16 13 -1 12 16 9 12 16 7 16 -2 14 11 8 14 11 16 10 8 -11 3 9 9 10 6 14 6 7 4 13 20 0 16 0 4 1 2 0 4 4 3 -3 -4 -14 -18 -21 -13 4 -19 -6 -12 -19 -7 -14 -21 -12 -14 -3 -6 -12 -8 -7 -7 -16 -12 -17 -5 -13 -14 -14 -7 -5 -20 -10 -6 -18 1 -12 -25 -11 -26 -6 -8 -12 -24 -7 -16 0 -28 -9 -12 2 1 0 3 -3 -4 -2 4 -8 0 -20 -12 -7 -11 -2 -4 -10 -17 -7 -11 -16 -30 -30 -17 -8 -9 -19 -24 -26 -20 -9 -4 -7 -10 -24 -23 -16 -33 -23 -11 -12 -33 -32 -39 -26 -18 -31 -20 -16 -37 -28 -42 -23 -34 -32 -34 -5 -22 -26 -33 -35 -28 -12 -12 -7 -16 -54 -31 -24 -19 -11 -16 -17 -20 -24 -17 -18 -24 -28 -2 -32 -19 -17 -18 -21 -42 -17 -17 -35 -33 -18 -22 -18 -24 -22 -40 -38 -30 -28 -32 -29 -38 -36 -15 -26 -26 -26 -36 -27 -38 -23 -33 -17 -38 -20 -21 -29 -26 -28 -25 -23 -34 -37 -19 -26 -15 -23 -41 -37 -28 -34 -19 -14 -16 -30 -18 -19 -24 -29 -28 -9 -25 -20 -9 -12 -13 -24 -32 -22 -21 -13 -24 -16 -30 -22 -39 -21 -45 -12 -26 -31 -32 -23 -27 -25 -25 -21 -16 -31 -24 -22 -17 -23 -20 -28 -22 -13 -18 -28 -37 -21 -21 -23 -30 -45 -24 -27 -18 -31 -29 -41 -24 -31 -17 -36 -32 -36 -31 -31 -34 -39 -54 -56 -59 -50 -58 -55 -56 -41 -48 -53 -68 -53 -56 -51 -50 -62 -72 -55 -53 -52 -68 -36 -65 -56 -51 -57 -58 -51 -56 -48 -54 -50 -59 -61 -66 -61 -64 -50 -66 -65 -63 -66 -58 -53 -60 -85 -63 -54 -79 -59 -60 -62 -48 -51 -66 -51 -49 -60 -67 -66 -81 -49 -61 14 8 9 19 22 9 -7 5 9 0 9 21 21 15 1 14 -4 9 20 14 20 15 9 3 -7 10 -5 14 13 14 14 2 15 11 14 19 9 8 8 12 14 4 12 19 5 6 9 5 18 24 9 6 13 -12 4 16 15 17 26 24 7 19 29 28
            768
            0 4 2 1 3 -4 -4 5 -21 16 -5 -6 -5 10 -9 9 10 8 -12 -1 23 -4 -19 -7 -7 23 -24 24 16 4 -2 -15 -7 2 -33 21 5 12 -3 -13 -11 4 -27 24 1 10 -12 -10 -15 14 -26 22 -1 1 -12 -4 2 4 0 1 1 -3 -2 2 -21 -12 -7 -55 -16 -36 -5 -72 -25 -18 -4 -3 2 6 -15 -28 -50 -20 -9 -43 -3 -13 -42 -23 -39 -47 -21 -35 -25 -19 -25 -20 -33 -9 -22 -13 -39 -18 -36 -29 -8 -16 -36 -31 -18 -28 -22 -67 3 -28 -26 -21 -24 -6 -22 -9 -3 -33 -4 -22 -6 -55 -31 -5 -20 -12 -9 -34 -30 -20 5 -17 -22 -31 -16 -19 -11 -3 -14 -17 -12 -33 -22 -19 -4 -22 -5 -34 5 -34 -33 -34 -9 -29 -32 -35 -28 -2 -27 -27 -16 -25 -13 -17 -24 -37 0 -30 -37 -24 -14 -3 -25 -8 -43 -2 -23 -13 -12 -33 -28 -24 -13 -11 8 -19 1 -45 -33 -41 -81 -25 -14 -44 -26 -48 -25 -42 -57 -28 -28 -38 -19 -60 -36 -30 -51 -13 -27 -43 -25 -45 -34 -12 -56 -28 -33 -25 -16 -34 -42 -35 -28 -28 -32 -42 -28 -23 -24 -29 -35 -21 -13 -36 -38 -40 -38 -44 -50 -29 -51 -41 -22 -48 -31 -23 -44 -21 -30 -31 -60 -26 -63 -40 -68 -50 -55 -78 -60 -70 -48 -63 -52 -49 -98 -48 -55 -80 -75 -53 -57 -42 -43 -37 -50 -89 -54 -48 -47 -59 -38 -88 -58 -100 -54 -67 -70 -43 -64 -40 -35 -58 -67 -49 -51 -66 -59 -63 -61 -79 -62 -48 -36 -49 -56 -75 -77 -29 -70 0 -76 -52 -36 -52 -48 -35 23 -1 19 5 -18 2 3 4 16 13 1 13 10 4 6 9 -4 4 -13 16 8 -5 2 -8 -32 13 -13 0 9 -1 7 11 -12 0 -4 9 4 5 7 13 -4 -7 1 -3 9 -3 -1 6 0 19 -1 -1 16 -1 4 5 -11 15 28 14 -10 6 5 -5 -3 1 -3 -2 -4 3 0 -1 5 13 3 -3 0 -3 3 4 8 -2 -11 -8 21 13 3 0 17 -1 -3 -4 25 6 3 6 3 8 10 9 21 -4 10 -8 2 6 18 18 12 8 -21 30 4 -22 -22 19 -8 1 -18 17 -1 1 4 3 -2 -2 2 -2 30 30 5 30 21 38 22 23 -1 16 22 20 16 4 28 27 22 3 17 10 39 18 -18 22 13 33 32 23 34 8 29 37 12 11 20 24 30 12 8 5 25 8 31 30 -9 1 21 13 44 15 -26 27 3 22 12 32 8 16 34 55 18 -9 -11 19 -9 -1 19 29 1 21 1 19 -33 52 18 22 34 8 9 13 -2 31 19 3 43 8 43 12 20 32 2 35 17 25 13 52 19 14 29 17 46 -7 22 17 27 30 -6 23 -2 55 17 25 19 8 29 29 0 20 23 2 31 33 24 24 47 14 17 34 34 30 49 36 12 40 15 29 -2 38 43 28 11 28 14 30 26 28 31 10 15 16 48 21 20 4 17 13 20 58 50 27 26 40 14 32 13 20 24 25 46 18 45 17 36 25 31 33 28 32 31 32 21 33 38 35 17 31 37 14 10 25 46 27 21 61 24 36 57 61 79 65 10 46 56 40 43 51 64 86 68 49 49 59 70 30 68 56 45 65 28 49 73 40 25 48 62 63 87 60 72 44 43 56 30 72 75 74 55 67 89 29 64 70 22 48 58 52 15 59 75 84 46 39 38 40 74 55 4 14 -4 3 6 -9 3 -4 -21 -2 -5 -5 0 -9 5 2 -23 4 -5 16 8 4 6 7 12 5 -12 -1 13 1 10 -9 18 -1 -7 21 8 16 11 5 13 28 -13 10 26 6 6 -11 -30 8 -6 3 18 22 14 5 -14 -3 4 -1 -32 -19 8 20
            768
            2 2 1 -3 2 4 -4 -2 -23 -9 -17 -12 -10 -11 27 -18 -12 16 -11 -16 13 -20 8 9 -21 20 -31 -18 1 0 15 12 -14 6 -49 -6 -25 -2 6 9 -16 3 -52 -13 -19 1 19 10 3 1 -49 12 -4 3 13 3 -2 3 -4 -4 -1 2 -2 -3 -30 11 -16 -14 8 -22 -39 2 -30 -2 -25 -22 -15 -20 -12 -19 -32 -27 -40 1 -29 -8 2 -17 -29 -11 -31 -35 -21 -5 -44 -1 -32 -28 -11 -13 -16 -22 -7 5 -28 -23 -7 -22 -20 -21 -17 -33 -25 -31 -34 -12 -1 -27 -10 -14 5 -33 -37 -28 -45 -31 -16 12 -12 -19 -21 -3 -34 -7 -23 -18 -34 -23 -18 -22 -7 -29 -33 -23 -21 -3 -12 -19 -28 -20 -34 -8 -29 -30 -13 -28 -12 -27 -6 -30 -25 -9 -34 -13 -36 -23 -22 -12 -24 -33 -17 -40 -15 -14 -27 -30 -49 -26 -21 -27 -31 -8 -37 -15 12 -26 -5 -18 -7 -38 14 -2 -30 -39 -21 -36 -54 -16 -11 -7 -25 -30 -31 -38 -12 -14 -15 -6 -35 -26 -32 -31 -32 -17 -8 -14 -12 -24 -31 -41 -34 -18 -31 -18 -27 -49 -38 -38 -44 -30 -22 -20 -41 -36 -29 -33 -41 -26 -23 -31 -36 -24 -43 -35 -24 -26 -31 -3 -26 -29 -37 -40 -42 -27 -22 -26 -25 -53 -56 -34 -56 -47 -37 -51 -67 -68 -51 -47 -29 -32 -52 -53 -35 -46 -47 -56 -51 -43 -47 -50 -50 -62 -39 -58 -49 -34 -47 -45 -52 -67 -47 -55 -59 -52 -55 -24 -53 -58 -48 -58 -51 -57 -39 -38 -62 -70 -57 -45 -39 -47 -46 -42 -39 -37 -56 -49 -35 -38 -74 -62 -11 8 -35 -14 7 16 25 -4 2 0 32 -7 -11 0 -2 19 -14 1 3 17 6 12 -8 18 -8 -24 17 10 3 19 31 -15 1 -22 2 -7 1 -1 3 8 11 -6 9 0 -1 3 2 1 12 7 4 -5 -6 3 6 0 -17 17 -18 14 0 2 -2 13 -4 4 -1 4 -2 -3 4 0 -9 7 10 28 -1 3 14 12 6 -15 13 7 4 8 8 12 6 1 1 29 7 9 8 7 -2 15 7 -20 5 12 -7 21 -12 2 -3 20 -20 -12 15 4 16 13 -18 5 -22 20 20 -6 -4 3 -2 0 1 0 3 2 20 -13 4 16 22 26 20 3 5 10 21 24 24 15 47 -5 19 29 20 25 8 20 35 13 42 25 8 -12 32 51 7 5 24 14 59 27 32 25 12 9 21 -12 34 15 35 55 18 9 16 36 23 -3 1 40 39 -6 28 12 6 2 28 -8 9 17 30 37 27 11 27 17 14 2 29 31 34 38 31 10 20 -21 32 43 39 21 23 14 27 8 25 20 35 13 21 27 5 17 12 25 47 24 22 48 34 34 15 31 33 19 21 23 7 15 46 34 6 25 51 36 37 6 8 37 50 38 7 26 28 16 26 37 32 45 27 35 23 6 30 40 37 39 26 23 33 11 36 24 21 36 24 26 38 2 28 39 37 49 32 25 31 -4 43 46 32 43 44 33 23 42 34 39 36 48 33 40 30 25 44 40 43 52 33 37 22 40 32 34 33 44 22 14 17 6 81 54 55 56 59 56 53 44 33 55 49 55 55 61 55 37 66 35 60 48 54 59 86 62 67 52 79 40 47 39 72 48 41 48 66 51 58 29 51 52 38 64 -10 45 42 50 19 15 73 52 75 42 44 59 77 20 62 80 66 61 33 40 37 7 9 11 -6 3 1 6 -4 -7 15 2 2 -4 1 4 -1 7 -33 -5 8 -1 -5 -3 4 -1 16 5 19 -3 7 9 2 -6 13 -1 23 10 10 7 3 10 14 0 15 0 -8 9 18 2 15 -12 -1 -13 -13 -17 -2 1 -14 8 0 5 -7 -7 5 -23
            768
            -4 1 -4 -4 -1 4 -1 -4 7 -47 -9 -10 1 16 -9 17 -5 -39 18 0 8 8 -18 -2 -11 -48 22 1 15 1 -2 0 15 -33 8 -10 -3 3 -9 -1 -8 -22 0 -16 -4 7 -2 2 9 -25 4 -6 3 2 -8 -6 -2 1 3 3 -2 1 2 -2 3 -25 -16 -30 -6 -51 -1 -11 -3 -34 -16 -33 -26 -2 -57 -41 6 -17 -10 -13 -34 -29 -24 -9 1 -41 -16 -14 -21 -44 -13 -19 -23 -22 -31 -37 -17 -33 -36 -5 -13 -30 -30 -12 -1 -19 -35 15 -2 -10 -1 -29 -33 -24 -9 -35 8 2 -6 2 -11 11 -32 -16 -25 -40 -30 4 -31 -14 -4 5 -19 -44 -25 -26 -41 -21 -19 5 -23 -18 -19 -9 -25 -47 -10 -24 -74 -38 -32 -3 -32 -9 -17 -32 -10 -16 -9 -24 -21 -37 -44 -26 -45 -25 -13 -7 -22 -32 -19 -14 -31 -5 -9 -27 -41 -21 -38 -13 -32 -29 -27 -1 1 -25 -47 -22 -40 -50 -40 -20 -28 -46 -33 -36 -31 -60 -44 -20 -41 -60 -37 -65 -26 -29 -26 -27 -46 -10 -22 -46 -43 -35 -29 -36 -14 -14 -28 -48 -13 -20 -39 -22 -44 -55 -32 -45 -49 -24 -13 -32 -29 -58 -50 -59 -10 -47 -26 -34 -28 -32 -9 -32 -24 -33 -20 -29 -24 -32 -9 -24 -59 -45 -67 -69 -45 -54 -60 -12 -65 -83 -73 -73 -73 -56 -76 -27 -80 -47 -49 -50 -55 -56 -81 -72 -80 -58 -81 -41 -43 -44 -48 -58 -69 -86 -69 -47 -58 -56 -40 -52 -70 -62 -47 -64 -51 -65 -65 -77 -66 -57 -62 -46 -51 -54 -27 -69 -36 -59 -57 -58 -23 -39 -54 -69 15 -5 4 23 -30 13 19 5 14 19 4 -10 -28 1 -16 10 3 13 -13 20 17 12 17 16 26 -5 -7 5 -3 12 6 19 -20 -15 -9 -8 -7 10 3 8 -3 -5 -11 -5 1 -2 1 -3 -7 6 -13 12 9 1 5 4 -20 15 -14 5 2 8 9 -21 0 -2 1 4 4 0 0 -4 9 8 2 3 2 29 3 3 5 4 -2 14 18 -12 5 11 1 7 9 18 13 6 16 -4 -3 6 3 2 12 -2 2 0 31 -11 -5 19 13 -5 28 12 18 -1 21 11 1 15 -7 16 2 -3 1 -4 -3 -5 3 -1 21 13 10 17 1 -19 13 43 23 25 7 10 14 17 46 -9 35 -24 39 10 24 26 19 4 -17 23 0 37 25 4 24 30 15 14 41 42 27 36 26 16 14 19 30 38 19 33 20 3 -20 32 33 19 28 35 22 -10 8 -6 35 28 33 7 22 19 34 9 28 8 32 29 -5 37 20 23 19 27 20 15 33 -20 42 47 21 37 14 31 37 16 4 12 17 21 40 28 28 -11 42 16 25 41 35 0 32 31 35 2 20 23 10 28 -2 12 17 14 25 5 5 36 22 12 24 12 21 15 45 17 48 29 26 37 36 9 31 22 11 25 22 42 12 -8 6 38 23 17 21 35 31 20 43 44 17 36 24 38 36 42 32 45 22 5 62 37 31 30 24 49 32 45 55 28 33 20 37 44 21 29 31 28 39 43 41 25 40 20 24 13 38 32 40 18 27 14 71 55 45 47 41 7 65 49 55 69 58 55 49 40 30 49 56 54 46 58 39 38 32 45 71 24 44 63 35 47 32 32 68 38 63 38 43 34 40 59 80 39 17 62 32 60 89 44 52 62 43 73 43 34 82 75 85 43 60 45 50 57 39 50 20 2 10 -14 -19 -18 9 0 38 0 -12 -10 -16 -6 -2 -17 14 6 -3 0 2 7 12 -20 -16 9 9 16 9 8 21 -5 25 15 11 14 4 11 7 -19 -4 -10 17 7 20 -1 35 12 -22 -6 -17 8 24 -24 16 23 8 -12 -24 -18 6 17 11 -17
            768
            -4 2 4 -3 -3 2 -1 -1 17 2 -1 -1 9 -6 -7 1 0 -28 -11 -6 -4 -13 -3 -16 4 -8 -17 5 6 -10 -9 6 -2 -2 -10 -3 -13 -4 8 -9 -8 1 -15 13 2 -14 0 -6 -4 -8 -7 -3 2 -20 -2 -13 2 -1 -4 3 0 2 -4 4 -10 -17 -13 -21 -11 -30 -5 -3 -33 10 -38 -1 -15 2 -11 -23 0 -36 -17 -7 -37 -1 -10 -5 -41 -22 -30 -29 -5 1 -25 -31 -16 15 -11 -14 -42 -17 -3 -27 -19 -21 -13 -35 -19 -34 -4 -23 -15 0 -18 -10 -21 -11 -10 -6 -14 -10 5 -10 11 20 -18 -21 -74 -28 -27 -62 11 -14 -26 -21 -30 -39 -45 -41 -50 -24 -25 -2 -16 -70 3 -9 -35 -19 -20 -32 -18 -8 -28 -13 -21 -27 -16 4 -12 -2 -19 -31 -32 -23 8 -34 -2 -18 -30 -25 -38 -7 -29 -10 -8 -11 -13 -20 -9 -32 -11 -17 -26 -7 -41 -17 -29 -25 3 -23 -35 -23 -30 -36 -36 -25 -19 -18 -42 -31 -60 -37 -18 -34 -32 -20 -39 -26 -45 -35 -56 -27 -32 -22 -46 -42 -37 -20 -31 -29 -13 -9 -30 1 -29 -28 -11 -20 -9 -15 -28 -13 -24 -15 -25 -34 -22 -29 -20 -34 -31 -24 -29 -38 -15 -48 -39 -34 -34 -28 -34 -23 -43 -28 -41 -72 -27 -87 -46 -68 -22 -95 -55 -43 -75 -58 -56 -89 -63 -24 -29 -22 -37 -53 -41 -44 -22 -30 -66 -65 -80 -64 -51 -33 -53 -36 -81 -64 -34 -47 -52 -50 -57 -63 -64 -52 -58 -45 -67 -45 -27 -28 -38 -54 -52 -62 -36 -44 -36 -50 -39 -37 -77 -47 -40 -72 -22 -58 -23 -5 -6 24 13 17 13 18 -39 -2 -5 18 -18 -13 -23 -17 -12 -11 -4 1 -5 -17 15 15 -2 5 2 -8 7 8 9 6 19 13 -1 2 -18 12 9 1 20 6 -1 14 0 28 -5 5 22 12 13 23 4 9 4 10 12 9 17 13 2 6 -10 -1 5 4 1 -1 2 0 0 1 -10 1 9 -3 -3 27 4 -1 5 10 -13 -20 -4 -5 13 -2 2 13 -16 -2 2 23 16 -2 9 -12 20 3 18 7 20 1 6 12 17 9 25 -2 1 9 1 -9 32 -12 -5 29 22 2 0 -3 -3 2 -4 -1 -4 1 21 -1 27 -43 20 37 20 -58 20 -7 4 17 24 -9 6 6 -11 15 12 37 26 12 36 18 11 29 7 45 11 38 29 34 -19 -17 22 11 18 7 33 5 15 10 8 17 11 42 6 17 23 31 19 28 51 41 8 32 -31 -6 27 21 34 -3 -17 3 22 30 25 28 14 41 24 33 3 22 -20 18 14 18 18 -15 13 38 20 37 6 40 32 3 32 0 30 37 25 30 24 51 4 24 17 20 17 26 22 47 14 31 28 4 24 42 -6 55 27 31 16 32 43 21 31 30 40 37 26 -1 9 45 27 -1 39 43 46 31 46 23 20 49 38 49 55 38 49 42 25 19 29 54 55 34 44 33 37 25 38 40 18 34 40 8 2 53 41 21 34 22 11 33 26 33 36 44 49 31 34 52 18 18 33 19 42 35 46 13 21 24 34 46 26 39 45 20 50 24 56 68 23 67 60 27 57 66 63 70 62 64 67 73 41 42 -6 58 63 81 52 84 49 45 77 74 68 55 75 54 66 54 68 43 50 75 71 66 64 68 56 73 54 58 75 63 51 36 84 58 33 74 28 54 54 63 50 62 71 67 86 52 63 56 1 8 9 -12 11 -5 -4 3 12 11 -8 15 -7 -3 10 7 -3 11 12 1 6 5 1 3 24 4 -5 18 16 -4 18 13 -3 8 -1 10 -3 2 10 30 -23 -9 -1 6 6 4 -7 12 -13 -5 -34 1 -12 -2 3 8 1 -1 1 13 -5 -2 4 19
            768
            4 -1 3 2 3 -1 -1 0 21 16 16 26 14 26 -16 20 21 14 23 25 16 20 16 13 15 14 22 39 25 25 12 14 20 10 21 14 18 31 12 15 15 16 16 17 16 18 25 15 15 11 15 9 -2 8 12 7 -1 -4 -1 2 -1 2 4 -3 34 28 20 26 32 13 18 4 23 30 32 35 32 43 10 1 29 24 37 34 25 30 25 16 29 29 32 44 34 39 23 24 23 -1 -3 18 25 18 25 15 5 21 17 28 37 18 25 1 25 17 21 15 27 2 34 10 15 12 24 20 23 20 -2 8 30 14 14 29 19 30 23 20 14 26 27 24 47 31 21 18 14 33 42 33 36 33 39 27 33 40 38 49 30 36 24 40 34 38 13 43 36 27 37 19 43 36 31 17 22 25 30 13 26 28 31 29 30 29 26 27 19 22 14 18 25 5 42 28 26 24 31 24 42 25 23 23 20 28 29 39 25 34 31 31 22 21 28 34 25 31 26 28 20 42 30 28 28 18 29 28 21 17 36 26 16 19 26 36 26 21 30 33 27 18 10 23 16 28 16 29 28 33 41 33 15 22 20 24 26 22 44 27 55 63 71 74 64 61 78 75 44 55 74 57 46 57 42 52 59 66 67 80 44 81 60 84 63 67 87 70 63 59 70 40 67 47 40 46 67 71 57 65 60 57 61 62 63 70 64 41 58 51 67 57 56 48 67 54 66 55 43 40 55 77 54 63 0 -3 -2 9 10 0 -5 -12 11 10 11 -3 10 0 2 -22 9 25 7 17 2 16 3 -5 12 18 13 8 13 11 7 11 1 2 -5 8 -10 1 -6 -8 9 7 7 -1 -2 -1 9 13 -2 12 4 16 6 4 7 2 -1 19 6 2 -2 5 14 0 -1 -2 0 0 -2 -4 -5 -1 -12 -9 -13 -13 3 -5 -7 -14 -12 -18 -12 -21 -18 0 -15 -11 -13 -6 -15 -26 -26 -10 -19 -7 -6 -18 5 -19 -14 1 -17 -8 -4 -19 -7 -13 -24 3 -29 -5 -6 -24 -17 -25 -25 -7 -9 -2 -3 3 -2 -4 0 3 -3 3 24 -18 5 -11 4 -9 -3 -13 -17 -22 -13 -34 -27 -12 -12 -7 -3 -27 -36 -29 -34 -22 -30 -14 -17 -21 -24 -28 -17 -35 -4 -19 -18 -28 -36 -26 -18 -21 -28 -10 -15 -22 -28 -27 -18 -22 -26 -15 -4 -26 -22 -16 -20 -18 2 -42 -16 -11 -22 -24 -29 -21 -24 1 -19 -33 -25 -25 -18 -12 -17 -17 -11 -37 -26 -29 -35 -33 -30 -22 -30 -21 -15 -11 -32 -19 -31 -17 -23 -44 -19 -31 -18 -33 -20 -22 -34 -37 -28 -31 -21 -23 -43 -24 -21 -27 -36 -24 -32 -31 -29 -29 -7 -18 -21 -26 -25 -31 -46 -20 -7 -12 -21 -16 -35 -33 -26 -21 -13 -25 -9 -23 -29 -23 -21 -28 -27 -14 -19 -30 -35 -22 -17 -27 -30 -27 -27 -25 -29 -10 -26 -15 -17 -8 -23 -27 -18 -26 -25 -31 -15 -15 -31 -35 -21 -29 -6 -21 -12 -40 -15 -18 -27 -26 -31 -31 -25 -27 -18 -33 -17 -11 -28 -21 -15 -26 -19 -30 -21 -26 -25 -21 -66 -51 -47 -58 -52 -46 -64 -57 -66 -58 -58 -65 -71 -48 -60 -41 -75 -67 -52 -66 -54 -47 -65 -38 -55 -55 -64 -45 -59 -58 -57 -61 -64 -50 -33 -38 -63 -47 -55 -55 -72 -41 -48 -44 -38 -67 -42 -48 -53 -48 -62 -51 -48 -47 -61 -28 -64 -55 -78 -69 -70 -55 -51 -71 6 8 12 14 15 4 -8 9 -6 3 14 17 -3 4 -8 -5 12 6 6 15 14 16 2 16 19 10 13 15 11 6 7 14 9 12 4 13 7 7 5 -1 12 11 13 8 8 7 -6 2 22 15 16 14 9 18 16 21 8 22 7 22 3 21 13 17
            768
            -4 1 -4 -4 4 -1 2 4 -12 22 -2 12 -31 19 -5 -26 -7 29 -18 -3 4 35 -4 10 -3 18 -15 16 -48 40 -13 10 -1 13 -9 10 4 30 -8 25 -9 23 -20 16 10 36 -19 29 -4 5 -2 9 -2 40 -1 26 -4 4 0 3 -4 -5 -1 2 -38 -7 -42 -30 15 -25 -17 3 -37 -8 -22 -20 -21 -50 -23 -21 -33 5 -26 -7 -48 -33 -45 -10 -15 -21 -59 0 -35 -54 -11 -41 -16 -15 -42 7 -13 -20 -3 -27 -40 7 -21 -36 -23 -34 -7 25 -43 8 -36 7 -37 -45 -62 -32 -9 -32 6 -28 -29 -11 -16 41 -51 25 -40 4 13 39 -1 -12 -4 -28 18 6 -33 7 -13 9 5 -33 4 -15 2 -48 -6 -21 -29 5 -23 -19 -32 -22 -32 -61 -7 -38 0 -27 12 -20 -13 -20 -7 -12 -24 -7 -25 -19 -23 -47 -13 -29 -13 -31 -2 -5 29 -6 -9 -11 -24 -11 21 1 -12 -26 -10 -21 -23 -15 -43 -19 -23 -22 -23 -24 -26 -12 -39 -28 1 -12 -18 -38 -42 -13 -24 -26 -53 -6 -45 -19 -44 -20 -30 -26 -13 -2 -31 -28 -45 -15 -24 -27 -20 -17 -51 -64 -65 -22 -28 -31 -44 -43 -26 -29 -29 -14 -20 -25 -7 -23 -15 -31 -33 -7 -21 -25 -30 -19 -47 -63 -31 -30 -12 -54 -35 -35 -36 -15 -51 -21 -27 4 -79 -44 -46 -41 -25 -51 -83 -42 -68 -19 -61 -49 -81 -31 -57 -65 -69 -29 -25 -53 -51 -47 -32 -7 -41 -22 -59 -55 -53 -35 -60 -35 -55 -36 -50 -64 -65 -38 -50 -39 -51 -54 -80 -50 -42 -41 -71 -8 -9 -32 -19 -2 33 -10 3 -41 2 -28 -16 4 -3 0 -2 12 -20 -38 -14 -7 -2 -15 -4 -31 8 -23 27 -5 -2 -3 -9 -20 -9 -43 -50 0 5 -6 4 -14 5 -14 -10 -1 0 12 -16 -4 8 -7 5 -33 -1 3 -2 -1 1 17 21 4 -31 6 -18 1 -1 31 0 -2 -3 -4 -4 -1 -5 -1 -7 -8 9 -5 2 -5 -5 2 3 -14 -11 15 -6 -21 9 -3 -9 -13 2 17 -28 -1 -20 3 5 -7 -14 -17 24 -33 -13 -25 -16 2 -7 -22 -5 10 -39 21 -2 -35 5 14 -11 -19 -19 -22 1 0 2 4 3 3 -2 3 -2 -17 -22 50 -12 10 -3 -36 -7 -27 1 23 22 -17 -16 -24 -6 13 17 14 13 -17 15 36 6 1 -11 24 -12 22 17 1 19 -1 29 -10 37 3 12 7 38 -3 23 35 28 25 18 9 37 -11 17 17 28 -40 -31 0 1 34 8 -8 17 29 -32 7 15 6 -5 15 11 9 19 14 13 -1 11 24 16 10 32 -19 -13 18 1 11 8 46 -20 35 37 -1 14 11 10 -14 47 33 19 23 1 41 -7 14 27 7 11 15 28 -4 46 -15 19 10 -4 24 -30 24 40 45 28 47 29 -56 -12 25 34 39 20 22 32 31 24 30 45 21 55 21 28 40 43 21 27 53 31 47 41 45 55 40 42 30 24 17 36 45 14 34 20 67 14 29 47 27 29 32 43 -8 15 -39 21 32 14 13 22 4 33 12 21 23 28 19 29 27 43 -13 17 15 38 36 52 78 12 25 58 22 45 29 37 41 48 35 56 12 71 49 48 43 15 93 40 49 53 44 50 56 40 54 38 65 74 37 24 57 52 87 28 49 85 59 34 40 64 45 25 47 65 57 60 66 58 57 48 14 80 22 66 87 62 105 46 72 36 75 67 36 64 37 24 -44 -26 -16 4 4 20 17 19 -18 -5 -12 -26 4 5 9 -25 -44 -14 -6 -20 -5 -1 -10 -10 -11 -19 -8 -33 -6 -5 -9 17 -8 -5 -14 -17 3 12 -39 -6 28 -9 1 -9 4 -28 -32 -13 30 -14 -17 -10 16 -28 4 -14 19 7 -55 -25 3 23 7
            768
            1 1 -3 1 -3 -3 4 3 -15 -16 -19 1 -6 20 3 -11 -10 -43 10 6 -17 7 8 -16 7 -33 -4 -6 -12 13 -9 -9 -16 -37 -2 -23 -8 0 -7 -12 -1 -49 0 2 -17 13 -2 -15 6 -40 0 -4 -3 3 -3 -14 -3 0 4 4 -1 -3 -5 -4 -17 -11 -19 -7 -58 7 -8 -12 -22 -49 -3 -21 -2 12 -3 -20 -1 -3 -14 -10 -38 -9 -7 -1 -13 -21 -26 -12 -11 -10 -49 -46 -45 -22 -30 -18 -39 -10 -13 -23 -14 -41 -35 -20 -26 -20 -9 -9 2 -10 -25 -33 -35 -24 -16 -5 -18 -17 -19 -15 -46 16 -9 1 16 -19 -39 -13 11 -27 -13 -48 -32 -12 -30 -15 -49 -24 -17 -23 -18 -17 -14 -25 -17 -14 -22 -40 -12 -21 -27 -22 -19 -44 -52 -25 -12 -15 -33 -38 -16 -15 -20 -33 -27 1 -14 -21 -50 -12 -36 -26 -34 -29 -23 -35 -31 10 -38 -44 -56 -15 -23 -29 -17 -39 -10 -50 -23 -40 -35 -35 -32 -44 -38 -45 -30 -34 -20 -8 -28 -33 -18 -16 -22 -40 -25 -14 -32 -48 -20 -30 -36 -27 -20 -18 -51 -31 -38 -21 -19 -50 -11 -43 -33 -46 -35 -39 -38 -17 -28 -37 -41 -25 -20 -43 -39 -30 -20 -31 -56 -35 -37 -39 -23 -50 -22 -36 -32 -26 -33 -27 -75 -60 -61 -61 -89 -73 -82 -68 -73 -71 -64 -68 -68 -35 -18 -71 -53 -86 -42 -62 -47 -81 -30 -93 -30 -62 -36 -72 -63 -57 -66 -62 -47 -86 -43 -74 -65 -59 -60 -57 -72 -51 -68 -58 -66 -67 -49 -65 -63 -72 -44 -65 -67 -42 -54 -54 -61 -93 -64 -56 -64 -68 -40 -99 -3 2 9 -12 19 11 -15 27 7 -13 -8 -7 1 0 17 -2 27 0 13 16 -9 -4 6 15 24 19 -5 24 2 5 -7 25 9 -1 -4 26 -15 -9 5 -16 13 1 10 3 -18 -13 1 16 -19 8 18 6 -3 -3 6 8 -4 6 -3 -3 14 12 6 8 -1 -2 3 -1 -2 3 -4 0 4 7 9 6 -2 12 22 15 1 -3 9 4 0 11 15 14 18 17 13 7 4 4 9 17 7 2 11 21 1 0 11 11 1 10 1 30 -5 -5 1 17 19 -8 1 21 1 8 14 -5 -1 -3 3 2 -1 4 -1 3 10 17 20 28 -2 5 13 5 35 16 48 32 13 43 -2 30 35 34 27 13 40 -5 12 60 34 13 16 44 10 10 16 14 6 35 21 27 51 29 36 10 52 34 40 2 -15 25 20 0 20 31 13 26 1 -12 2 25 -22 26 13 33 1 0 29 20 24 11 11 28 26 22 -19 5 39 18 25 22 14 8 30 54 5 15 25 10 13 18 33 21 42 19 10 33 24 17 26 34 41 34 7 27 21 39 23 27 16 14 41 37 28 18 34 9 53 23 37 6 -1 0 27 34 16 7 -1 40 33 36 38 -19 21 35 20 14 41 19 19 11 10 58 17 23 21 29 30 -7 26 36 17 11 32 22 31 40 29 32 16 27 31 33 17 32 28 22 32 8 31 29 23 16 33 31 48 26 32 35 33 25 35 35 29 30 23 37 12 28 32 45 25 10 44 40 29 32 44 46 31 48 55 0 38 58 44 75 59 48 48 46 22 23 51 34 38 62 33 41 45 68 36 45 59 44 70 38 54 68 54 57 51 44 57 31 55 37 32 62 52 58 31 60 56 52 45 46 52 44 56 53 65 7 54 66 34 34 51 35 42 58 -49 -39 -19 5 4 3 -2 -2 3 -16 12 7 18 15 -1 -8 -10 -9 1 10 12 -5 1 -2 14 18 13 14 10 6 -1 12 9 26 20 10 19 11 15 6 8 20 19 13 8 -8 0 -6 -8 -21 18 27 12 -12 -16 2 -5 -6 0 11 -9 38 -8 11
            768
            1 1 -2 1 -3 2 -3 4 -10 10 -4 -5 -13 -37 -22 7 -1 -19 -37 -34 -22 -45 -31 11 4 -26 -4 -49 0 -23 -8 -14 2 -28 -12 -53 17 -7 1 5 -8 -20 -23 -59 2 -36 -17 0 0 -37 -9 -44 2 -35 -11 11 2 -4 -1 1 1 -1 4 2 -4 -33 5 -30 -39 -19 -14 -29 -17 -43 -3 2 -11 -44 -25 -10 -7 -11 -25 -35 -32 -7 -12 -51 -18 -23 -4 -23 -1 -28 -11 -12 -48 -8 -14 -19 -28 -17 -10 -34 -50 -32 -10 -15 4 -13 -27 -38 -51 1 -17 -11 -40 -42 -9 -26 -52 -18 -34 1 -31 -54 15 -33 -12 -34 3 -14 -17 -28 18 7 -49 7 -36 -30 -10 -22 -9 -3 20 -42 0 -10 -34 -26 -14 23 -25 1 -34 -2 -23 -26 -17 -16 -12 -26 -17 -28 -7 -16 -15 14 -49 -8 -32 -1 -40 2 -7 -26 -20 -10 2 -27 -20 3 -4 14 -64 -30 -31 -27 -53 -11 -6 -22 -39 -35 -41 -26 -17 -21 -30 -28 -10 -10 -29 5 -6 -21 -20 -30 -27 -30 -47 -38 -22 -9 -15 -31 -25 -16 -31 -47 -20 -37 -29 -29 -37 -20 -31 -30 -16 -50 -50 -31 -40 -37 -33 -39 -24 -30 -38 -58 -16 -39 -51 -48 -39 -29 -58 -48 -45 -49 -45 -48 -49 -48 -50 -27 -56 -76 -70 -43 -78 -80 -84 -65 -51 -62 -88 -53 -51 -58 -89 -63 -63 -63 -81 -92 -47 -59 -32 -46 -68 -75 -66 -72 -58 -77 -42 -124 -52 -44 -60 -43 -78 -71 -69 -27 -88 -45 -65 -76 -72 -65 -70 -80 -64 -29 -60 -70 -45 -64 -62 -36 -107 -72 -88 -74 -94 -98 -65 -44 22 11 17 12 1 5 13 -34 24 4 27 18 9 21 10 1 12 3 -4 4 18 -13 19 7 -6 7 -16 9 4 8 -2 -7 10 -27 11 7 9 4 16 17 2 -2 15 19 7 2 18 -11 35 3 4 2 16 12 29 26 3 39 3 3 -19 21 34 34 0 -3 -4 2 -4 -2 -3 0 15 14 4 -26 -1 4 3 -1 6 25 7 6 6 17 4 3 -2 4 -4 11 -2 -2 -3 -2 9 -25 3 4 0 -1 0 4 19 -21 15 9 10 21 13 18 22 -18 1 25 31 -37 0 1 -1 -3 -4 -2 0 3 4 1 4 12 14 36 62 44 -29 11 -18 38 6 32 20 40 0 50 40 0 4 1 13 24 -12 -12 15 26 -12 25 21 17 23 2 23 2 -11 8 -6 -2 -44 1 10 -9 20 13 -2 -12 15 -36 -20 -16 25 10 0 -24 6 52 7 6 19 -41 79 25 22 6 12 27 12 17 -3 29 -18 24 7 2 2 18 15 -6 39 30 2 15 19 25 7 1 -4 24 16 -28 -1 -16 30 6 14 -2 33 8 0 3 -3 11 -24 -24 27 -11 19 1 4 15 38 30 39 7 -3 17 15 12 1 28 12 7 -29 -32 33 -10 31 7 35 8 26 21 23 24 1 5 20 20 37 18 -8 0 18 7 10 24 34 15 9 35 14 2 24 28 3 -4 17 42 47 7 25 31 44 30 32 1 44 37 30 28 22 36 4 14 -5 20 3 6 35 25 3 -3 10 10 28 6 33 19 40 24 17 45 46 57 -30 39 33 53 53 35 52 50 9 42 45 35 14 38 65 51 46 53 42 32 58 35 -17 51 71 69 71 52 52 48 36 22 61 51 50 27 20 31 9 35 44 107 23 0 50 67 25 7 25 55 70 23 -46 57 37 23 18 5 12 54 58 62 -38 -20 -8 23 10 1 -7 -17 5 13 1 18 19 6 7 1 13 0 22 26 29 26 0 23 8 -11 7 25 31 6 25 14 14 -5 20 13 8 21 34 0 -3 11 14 26 30 2 7 20 37 26 29 -16 20 19 26 -19 18 20 10 11 16 18 1 0
            768
            4 0 -3 0 -4 1 -2 1 -2 9 -24 -39 -23 -9 -13 0 -7 -18 -23 -14 -17 -13 16 -2 -15 4 -18 14 1 -9 5 1 -1 0 -2 14 12 -2 1 -9 8 1 -7 -9 12 -8 10 5 -14 -21 -14 -3 -1 -11 -1 -1 -2 2 -3 1 2 -2 -3 0 -18 1 -59 2 -9 -34 -16 -12 -3 -19 -29 -2 -15 5 3 5 -34 -43 -30 -36 -48 -26 -46 -10 -27 -20 -36 -5 -19 -21 -3 21 -25 -65 -54 -34 -16 -14 -25 -41 -1 3 -26 -36 -24 -25 4 -12 -50 4 -50 -23 -13 -43 -22 -23 -22 -10 7 -7 -13 -1 -40 -30 -35 -38 -10 -14 -27 -26 -24 -3 -15 -61 -23 -24 -12 9 -22 -43 -42 -22 -42 -23 -27 -22 -39 -28 -39 -15 -28 -23 -18 -25 -29 7 -25 -39 -28 -24 -7 -19 -3 2 -17 -1 -29 -26 -22 -33 -6 -4 -27 -33 -24 -34 -24 -21 -39 -31 -30 20 -23 -38 -36 -27 -35 -2 -31 -38 -24 -50 10 -24 -38 -17 -25 -30 -15 -45 -17 -32 -10 -16 -21 -54 -36 -50 -4 -31 -28 -26 -28 -39 -36 -49 0 -26 -21 -25 -43 -47 -40 -53 -41 -19 -27 -24 -58 -52 -22 -37 -6 -27 -53 -26 -50 -40 -46 -47 -14 -23 -14 -25 -24 -25 -21 -26 -6 -30 -26 -37 -71 -52 -28 -54 -27 -47 -50 -60 -46 -29 -29 -54 -34 -31 -50 -57 -55 -53 -46 -65 -56 -18 -90 -53 -64 -26 -48 -43 -41 -49 -60 -56 -63 -17 -49 -43 -17 -32 -81 -62 -51 -62 -56 -57 -42 -52 -57 -62 -68 -56 -50 -59 -60 -51 -73 -27 -55 -76 -49 -53 -45 -81 -69 -34 26 9 -33 23 -4 -25 16 40 28 1 -7 16 3 36 16 3 24 -8 -1 -5 0 7 -5 12 -8 10 19 -8 9 13 0 2 29 28 -9 -5 11 -2 3 -5 33 21 -2 0 10 2 -7 28 -19 -7 -1 -4 -5 -4 1 16 -9 -18 -11 -2 9 -5 0 18 -3 -1 2 3 3 0 -2 0 20 -3 -1 -6 0 35 9 7 2 1 7 13 0 -27 13 11 11 -2 -9 5 19 -25 -1 9 9 -8 9 2 14 -4 -46 16 10 18 18 10 -17 18 -3 -5 29 -26 10 4 11 -17 -14 -7 2 -1 4 -4 -1 -1 2 0 9 5 22 -27 25 12 33 55 5 -5 33 14 -7 3 14 24 38 29 21 5 37 29 41 17 37 55 46 35 24 27 26 -24 25 23 17 17 29 28 32 27 8 49 48 -3 44 34 46 25 -20 -21 20 -5 25 24 -3 52 -7 14 4 38 15 31 28 33 36 29 25 -10 9 23 1 22 3 21 4 14 11 56 9 11 40 5 39 -14 13 16 -67 -1 39 42 42 12 40 33 10 28 -6 22 6 19 58 20 30 9 28 13 -2 15 33 19 27 45 2 25 25 29 28 19 46 24 30 45 -2 -4 29 21 22 -38 24 35 26 24 13 16 27 19 36 10 15 32 4 41 -3 -20 16 30 24 28 15 29 42 30 23 19 16 13 23 22 -8 -13 41 17 21 19 4 25 29 -2 47 10 27 50 27 19 44 14 27 40 26 29 13 39 20 46 23 31 31 22 13 18 29 26 40 48 43 59 28 8 81 62 55 53 54 37 57 60 73 39 45 -6 41 24 55 61 51 42 56 51 65 40 83 66 67 59 46 61 62 67 34 59 90 49 83 54 79 63 75 54 48 71 19 52 78 99 87 55 47 58 20 52 83 49 60 39 44 34 -4 2 -9 2 -9 2 7 -4 -28 4 10 -10 13 22 8 2 -28 -7 13 -13 15 14 5 0 -14 24 10 0 28 10 -7 7 -28 -21 1 -20 -4 6 0 -10 -11 -15 2 -26 27 -15 -4 -19 19 -2 10 13 3 -2 -6 -3 -26 -15 14 -10 23 11 -16 7
            768
            2 -3 -3 -2 1 -3 0 -4 2 8 11 12 -3 4 -5 12 0 15 -6 14 -5 3 2 17 14 1 -5 5 -2 21 3 5 8 6 -3 20 11 17 12 2 4 9 5 1 4 9 5 6 13 7 3 1 1 8 9 13 -2 2 -4 -1 2 -3 -2 -3 17 8 18 30 24 21 23 10 13 39 33 15 18 15 23 23 22 16 28 29 30 4 26 29 35 23 21 23 24 28 11 22 17 25 24 19 16 29 26 13 23 36 20 10 13 20 26 19 24 19 19 17 0 18 40 26 12 7 8 16 11 6 9 24 19 33 24 21 19 15 27 27 12 27 25 38 20 22 18 18 12 23 25 16 21 27 27 33 34 31 30 28 24 30 26 18 33 26 22 23 46 26 24 24 26 25 19 28 22 21 25 17 6 21 15 20 13 36 26 17 18 27 35 13 12 25 28 30 35 44 32 45 35 34 31 34 32 38 31 31 37 39 34 26 28 29 13 42 22 42 42 21 36 37 35 28 40 41 30 35 33 41 42 38 35 36 33 48 31 43 36 29 34 35 37 39 33 48 41 40 40 32 28 28 33 32 38 19 36 34 39 30 49 65 65 77 54 76 61 66 59 56 65 69 66 65 53 57 79 64 65 57 49 70 57 60 51 70 57 61 45 58 56 63 74 59 58 58 61 44 70 53 69 63 64 62 56 63 62 54 61 64 58 56 59 68 58 62 60 55 45 67 41 60 55 72 0 -15 5 -29 9 10 0 11 -25 2 17 0 -6 8 -9 -3 11 -3 9 8 13 -8 -7 8 4 -4 14 4 8 9 4 -6 9 12 1 11 7 5 9 15 21 -2 13 4 4 3 11 -6 -1 12 -10 -5 -4 13 10 9 -4 16 17 4 4 9 13 18 4 -2 2 2 2 -2 -4 3 -8 -6 -3 -1 -1 0 -3 1 8 -10 -5 -9 7 -9 3 2 -3 -7 6 -4 -4 8 -6 2 -3 -3 -2 2 -1 -3 -4 -4 2 -7 5 -9 -15 -7 2 5 -4 -5 3 3 3 1 -10 0 2 2 3 4 -1 1 -4 -2 1 -20 14 -2 -7 -23 -18 -23 -16 -1 -16 -16 -22 -15 -7 -25 -15 -8 -22 -16 -16 -17 -20 -10 -15 -9 -24 -20 -15 -15 -16 -16 -11 -21 -17 -17 -29 -27 -22 -28 -10 -36 -20 -16 -19 -4 -3 -13 -13 -18 -22 -20 -19 -15 -31 -23 -12 -24 -27 -16 -26 -17 -23 -17 -16 -29 -23 -14 -19 -21 -14 -10 -24 -22 -18 -16 -17 -19 -12 -28 -26 -27 -18 -26 -14 -19 -12 -12 -5 -21 -24 -20 -28 -19 -29 -11 -21 -28 -12 -24 -20 -19 -28 -31 -13 -17 -17 -18 -28 -14 -16 1 -25 -15 -12 -26 -23 -21 -20 -32 -37 -29 -13 -23 -20 -15 -18 -12 -30 -27 -27 -35 -36 -22 -38 -28 -46 -34 -37 -35 -37 -33 -37 -24 -32 -46 -23 -41 -26 -32 -43 -19 -33 -43 -35 -41 -34 -34 -45 -33 -39 -35 -25 -29 -43 -34 -27 -33 -31 -30 -39 -44 -34 -31 -28 -26 -38 -36 -38 -40 -48 -43 -33 -35 -43 -38 -36 -40 -49 -37 -43 -30 -53 -64 -52 -58 -52 -59 -42 -59 -51 -38 -63 -51 -58 -62 -70 -53 -44 -47 -44 -57 -63 -61 -62 -65 -47 -50 -51 -61 -63 -65 -63 -71 -59 -63 -48 -54 -56 -49 -66 -66 -67 -65 -56 -58 -62 -55 -59 -53 -55 -63 -75 -45 -64 -55 -91 -61 -61 -56 -51 -54 -62 -63 -51 -41 -3 0 15 4 10 8 1 4 9 2 5 15 17 6 3 -2 23 4 2 6 17 14 11 17 20 7 3 3 2 1 10 6 16 20 -9 -3 4 3 0 8 6 7 -1 1 7 6 11 21 14 -6 7 0 -21 3 18 14 4 -3 -2 -6 -6 9 -11 -5
            768
            -4 4 1 3 -1 1 0 1 15 20 0 -10 -26 18 -21 -3 -1 -8 -13 3 -2 8 -34 -1 -8 9 -11 12 -22 30 -32 -6 -15 -4 0 -3 -37 7 -36 8 -20 -2 -2 -12 -29 5 -51 5 -1 3 -4 -7 3 5 -35 2 -3 0 0 0 -2 -5 0 -3 14 7 -3 9 -8 -6 3 -25 17 -10 -4 -37 -13 0 -32 4 -45 -15 -14 -29 -12 -20 -53 -31 -16 -20 -31 -38 -32 -28 -17 -45 -31 -8 -63 -13 -36 8 -7 -38 -40 -31 -5 -28 -15 -27 -47 -19 1 -36 -28 -26 -32 -29 -13 -31 -13 -30 -6 -34 -7 -30 -28 -17 -18 -28 -14 -22 -35 -11 -27 -34 12 -23 -18 -19 0 -25 -31 -36 -12 -42 -35 -65 -9 1 -29 -5 -23 -23 -41 -12 -43 -12 -12 -3 0 -16 -27 -39 -25 -19 -20 -10 -11 -11 -13 -27 -10 -24 -7 -4 -14 -26 -32 -16 -18 -10 -3 -15 -54 -30 -24 -10 -23 -20 -14 2 -30 -22 -26 -37 -41 -17 -26 -24 -31 -30 -31 -36 -44 -27 -35 -44 -32 -45 -36 -45 -43 -29 -40 -35 -16 -21 -8 -51 -51 -15 -35 -33 -40 -46 -34 -39 -44 -38 -49 -39 -28 -49 -28 -41 -53 -19 -15 -21 -38 -25 -41 -36 -56 -21 -48 -42 -32 -25 -42 -32 -36 -31 -32 -41 -60 -29 -47 -45 -89 -32 -44 -52 -66 -60 -57 -26 -55 -49 -81 -57 -55 -63 -61 -65 -46 -51 -45 -52 -64 -17 -56 -47 -53 -69 -39 -64 -32 -73 -72 -71 -50 -49 -44 -82 -43 -55 -66 -42 -57 -63 -30 -32 -69 -84 -72 -47 -59 -79 -74 -48 -39 -39 -46 -45 -56 -51 -79 -63 11 10 3 14 -5 -26 -15 7 5 20 12 14 -11 10 4 18 -9 21 3 -4 7 21 5 -11 9 8 -18 -16 1 8 15 -21 2 -23 0 -1 12 0 3 -7 15 -13 17 4 9 -8 9 6 0 6 29 -6 14 1 10 10 8 22 -5 -1 9 5 12 19 -4 -2 -1 -2 -3 4 4 4 7 8 -5 0 -2 17 7 -3 13 9 24 -10 12 1 8 10 6 22 9 10 2 6 7 5 18 -5 -4 13 11 20 1 -3 1 3 11 22 -2 21 -1 7 -10 17 16 3 0 25 1 29 -2 -4 0 1 4 -3 -3 2 19 14 9 6 16 26 10 33 -10 30 25 6 7 42 2 41 9 40 42 8 39 30 52 5 31 6 -3 39 30 38 6 22 0 -17 7 32 17 31 12 34 -18 62 -14 3 17 5 70 16 19 6 21 2 5 18 24 -37 -2 18 35 51 23 9 1 30 19 36 29 14 35 21 12 8 24 33 -4 1 11 -8 17 25 26 5 41 25 46 7 0 47 13 38 18 25 19 9 20 30 10 13 48 21 38 21 36 18 20 26 13 30 20 35 41 18 27 19 24 15 26 20 40 29 28 38 -5 32 23 37 7 7 13 16 27 32 30 30 24 18 20 32 34 33 26 38 25 13 32 21 31 21 33 30 42 19 36 47 20 45 42 32 38 24 36 27 23 38 25 38 40 22 29 22 21 28 29 20 -2 36 15 29 15 32 28 30 34 22 31 29 19 37 16 47 25 28 58 30 64 62 36 51 46 16 77 50 55 24 39 40 38 56 71 44 50 44 68 50 55 44 17 51 38 45 36 53 51 29 55 51 25 49 28 55 74 49 40 75 31 49 33 45 28 56 64 11 20 6 41 54 41 26 58 66 65 67 48 59 62 48 19 21 34 4 4 -5 -10 -17 11 9 20 -9 -6 -4 8 -7 3 23 12 -1 3 13 5 5 10 4 14 3 13 15 18 4 10 9 4 5 -3 10 4 16 23 -3 32 3 15 20 2 3 8 -2 -1 -8 -35 35 -16 4 -29 12 9 5 31 -28 -2 11
            768
            4 3 -1 3 2 1 0 3 11 10 18 15 0 10 -1 3 3 1 20 -3 -16 19 17 4 4 -6 5 11 12 -8 11 13 4 9 12 21 1 25 1 4 10 6 20 25 9 4 5 -1 0 12 -8 15 4 3 9 10 0 -4 1 4 3 3 0 4 21 24 12 29 25 15 30 0 19 22 27 33 32 36 28 11 -1 30 31 20 23 32 32 25 5 32 1 25 13 21 22 21 29 19 19 24 39 27 24 -10 3 27 17 37 33 28 32 23 7 13 18 40 36 4 9 22 27 -18 22 -1 20 19 28 13 25 10 31 17 35 20 23 21 11 18 24 30 13 26 27 15 21 19 19 7 36 22 30 17 30 11 32 24 28 19 26 -14 20 30 27 24 33 22 30 34 -13 17 30 19 29 22 23 38 5 37 30 32 10 20 27 29 23 -1 0 6 35 -13 3 3 44 35 38 32 40 37 22 30 40 31 42 25 38 25 31 34 32 28 40 27 12 33 32 34 32 26 40 43 41 43 42 36 31 22 47 46 33 38 36 44 35 35 51 42 42 30 37 38 28 32 38 28 27 25 17 33 29 29 37 29 25 31 31 16 70 69 66 69 77 79 72 76 67 79 75 51 52 68 71 68 73 69 65 68 64 63 41 58 53 58 54 52 69 20 50 65 66 60 62 68 68 73 56 71 50 50 69 72 71 49 68 53 62 61 54 70 74 50 52 52 65 44 52 49 68 38 45 37 4 8 5 10 4 14 5 3 12 18 9 11 7 21 11 11 2 15 16 17 13 8 6 -2 14 9 6 1 25 21 12 15 10 17 5 17 19 16 17 8 14 16 11 11 6 6 1 12 4 2 14 11 16 13 3 22 -5 -2 4 -12 -1 11 11 3 -4 -4 0 -1 -2 4 -1 -2 -6 -11 -6 -12 -4 -4 -11 -6 -6 -13 -5 -18 2 -13 -27 -10 -3 -10 -15 -8 -13 -16 -3 -7 -13 -16 -2 -16 7 4 -8 -8 -15 -21 -5 -16 -20 -18 -1 -15 -3 -30 -9 -25 -9 -9 -5 -9 1 0 3 0 4 4 1 1 -45 1 -15 -5 -8 -14 25 -6 -2 -38 -26 -22 -31 -23 -5 -26 -23 -20 -25 -13 -11 -24 -35 -40 -14 -28 -42 -43 -33 -26 3 -5 -27 -38 -10 -36 -35 -37 -18 -9 -16 -9 -28 -9 -29 -28 -26 -28 -28 -25 -38 -18 -20 -19 -19 2 -15 -21 -20 -13 -27 -17 -11 -8 -22 -15 -23 -20 -16 -26 -26 -20 -19 -25 -8 -17 -29 -14 -24 -10 -14 -26 -22 -8 -22 -2 -26 -18 -11 -16 -38 -16 -24 -32 -31 -14 -12 -36 -30 -25 -23 -20 -18 -19 -16 -26 -21 -14 -35 -1 -28 -22 -12 -19 -16 -39 -21 -21 -35 -29 -18 -51 -10 -34 -25 -35 -38 -13 -34 -30 -15 -25 -27 -29 -30 -34 -37 -29 -19 -47 -28 -28 -29 -30 -26 -32 -35 -26 -34 -40 -37 -39 -36 -25 -20 -26 -44 -39 -44 -59 -26 -20 -26 -30 -26 -36 -38 -41 -36 -33 -24 -25 -17 -34 -30 -42 -30 -41 -25 -21 -25 -29 -23 -38 -37 -36 -44 -36 -41 -27 -43 -38 -45 -42 -75 -50 -62 -60 -57 -66 -50 -67 -55 -54 -56 -58 -76 -39 -64 -59 -60 -59 -67 -53 -54 -53 -58 -59 -47 -32 -64 -54 -55 -73 -55 -57 -53 -68 -66 -57 -46 -60 -57 -68 -60 -62 -52 -67 -59 -75 -47 -78 -53 -62 -52 -76 -53 -36 -78 -53 -60 -55 -54 -51 -65 -46 24 29 21 17 22 21 -2 -4 8 9 19 17 10 5 5 -17 15 29 19 22 12 11 11 15 8 12 11 16 15 5 11 9 14 11 17 10 8 12 13 10 6 14 18 -3 2 8 9 7 0 11 9 4 14 20 5 16 7 11 12 16 10 16 19 19
            768
            -3 -3 3 -4 -3 -1 1 -4 3 -24 6 -8 -10 -3 -21 2 -1 -23 4 -7 -2 -21 -13 -11 -8 -50 3 -8 -15 -9 -19 -7 -6 -26 -4 -2 -6 -14 -21 7 13 -13 3 -8 -25 -23 -16 7 1 -25 -19 -5 -4 -21 -22 6 1 2 -1 0 4 -2 2 5 -55 16 2 11 -18 -45 -12 -28 -7 -3 -16 -8 -41 -32 -1 -18 -39 -49 -27 -6 -16 -39 -29 -11 -18 -4 -1 -33 -46 -4 5 -15 -49 -14 -23 8 -22 -51 -36 -2 18 -12 -16 -34 -28 -12 -10 -31 -17 -16 -28 9 -18 -13 -57 27 -22 -19 -51 0 -22 -25 2 -16 20 -19 -31 -9 -14 -3 -4 -38 -2 -14 -32 -15 -17 -10 -2 -28 -13 -24 -32 -10 -7 -47 -26 -14 -57 -39 -12 -23 -41 -2 -18 -21 -11 -14 5 -9 -6 -2 -31 -44 -87 -20 -24 -31 -11 -6 -5 -31 -20 -7 -25 9 -19 -9 -17 -14 6 -19 -18 -15 -22 -29 -38 -3 -18 -22 -31 -11 -23 -45 -25 -26 -44 -59 -38 -39 -37 -49 -39 -44 -25 -44 -63 -25 -36 -30 -42 -31 -28 -47 -40 -31 -58 -34 -38 -20 -32 -36 -59 -25 -27 -17 -30 -20 -45 -58 -19 -5 -33 -34 -41 -9 -57 -39 -41 -28 -23 -33 -15 -36 -35 -35 -50 -20 -25 -27 -47 -21 -82 -36 -46 -72 -45 -66 -41 -38 -88 -74 -50 -59 -22 -44 -61 -73 -34 -82 -62 -39 -96 -94 -56 -42 -51 -84 -71 -43 -66 -60 -63 -18 -48 -78 -29 -32 -67 -39 -38 -55 -36 -43 -62 -67 -63 -46 -73 -31 -76 -77 -44 -58 -50 -86 -40 -45 -36 -23 -31 -48 -34 -31 -87 -42 -5 21 -1 -13 4 6 9 -17 -7 1 -1 18 -5 12 -16 26 11 -13 13 14 -5 18 -1 8 3 11 5 19 10 -1 -11 17 13 10 16 -1 8 0 7 -11 21 33 -11 -2 13 14 -11 18 -5 -9 -2 5 -8 8 -3 22 36 27 18 1 10 10 10 4 -1 4 -1 -2 1 1 -1 4 -9 9 -18 6 3 -2 11 6 9 -13 9 26 13 8 4 19 1 -3 25 18 1 -3 8 13 3 37 15 -3 21 12 29 11 -7 5 24 10 5 24 25 13 4 12 24 24 -5 13 12 19 -1 0 -4 -2 3 -2 -2 3 27 -3 19 -43 25 5 1 15 34 32 22 16 15 22 4 -26 8 12 0 28 23 15 16 16 8 17 26 34 40 11 27 11 43 28 22 8 -1 9 20 32 3 24 14 24 7 -1 32 42 25 15 47 -19 42 31 40 6 21 24 10 13 29 7 23 24 12 18 -14 18 -14 8 24 2 32 1 13 14 13 20 9 -16 -33 20 4 36 15 5 28 9 11 4 1 23 -2 17 25 30 23 2 48 31 58 18 9 22 28 22 11 13 50 26 18 37 9 6 12 16 -11 18 20 10 18 32 15 53 -2 23 17 19 39 32 39 16 45 32 41 22 51 46 36 31 33 44 40 25 24 16 26 43 23 25 50 37 37 36 33 32 28 19 31 28 36 19 42 47 15 44 33 37 26 24 47 24 29 56 28 36 46 34 46 17 39 36 17 39 29 42 11 9 18 42 34 12 36 56 71 50 55 48 53 38 5 72 31 71 32 49 32 56 16 42 67 34 63 38 62 67 44 32 46 43 25 49 47 17 88 80 84 59 68 89 67 15 48 44 34 58 47 55 40 52 94 85 47 54 33 64 75 55 33 71 40 91 82 60 33 67 15 1 -9 -5 6 14 -4 -26 30 -17 -3 17 -7 -2 3 -4 7 8 20 11 6 -7 7 22 26 3 1 29 19 25 21 5 0 14 10 21 7 10 4 -2 -22 -5 -2 1 21 17 11 17 17 -9 -14 4 -7 -3 17 1 -23 -7 4 17 4 11 9 16
            768
            4 -1 3 -2 2 1 -4 -1 6 1 16 4 -6 18 17 9 -27 5 -3 14 12 14 15 29 3 17 21 10 2 15 28 17 4 0 17 4 19 31 16 18 11 11 23 12 19 24 16 7 9 7 21 4 -4 31 15 10 -1 -3 -2 -4 4 -4 3 3 6 -27 0 -8 -6 -13 11 -31 -40 -33 -11 -57 3 -42 -9 -10 -51 -20 -17 -26 -31 -41 1 18 -14 -3 -2 -3 -10 -28 -15 -33 -21 -8 -36 -21 -22 -13 -39 -26 -9 -30 -17 -21 -16 -17 -23 -19 -47 -27 -29 -28 -24 -1 -40 -21 -2 -15 -55 -23 -32 -25 -45 45 -38 -13 -30 -20 -12 -5 0 -16 -5 -14 -12 -25 -18 -24 -10 -37 -15 -13 -31 -18 -17 -14 -54 -16 -16 -26 -16 -9 -8 -13 -2 -9 -28 -14 -28 -25 -21 -6 -21 -5 -26 -20 -21 -27 -23 -14 -16 -4 -9 -28 -23 -9 -26 -8 -17 13 -39 -22 -20 -28 -33 -18 -1 -34 -40 -25 -44 -35 -15 -22 -34 -22 -55 -43 -31 -29 -29 -20 -38 -33 -34 -33 -39 -38 -32 -26 -45 -29 -44 -33 -24 -31 -21 -14 -36 -29 -36 -20 -26 -44 -15 -20 -37 -19 -21 -25 -38 -60 -24 -30 -23 -12 -28 -27 -40 -55 -38 -30 -64 -15 -24 -28 -39 -46 -29 -30 -55 -38 -37 -43 -78 -68 -46 -60 -53 -51 -62 -74 -56 -53 -36 -53 -47 -57 -47 -59 -44 -51 -46 -60 -52 -41 -44 -47 -70 -68 -38 -37 -50 -54 -43 -50 -42 -47 -43 -51 -47 -59 -63 -36 -40 -64 -48 -66 -53 -41 -31 -42 -65 -71 -52 -45 -56 -39 -62 -93 -42 -59 -46 -57 -36 -35 -6 -11 22 11 -1 -18 3 3 -7 -3 -10 -12 -9 -18 14 -16 -22 -3 -33 -13 -13 -9 -7 16 -41 -7 -15 -13 -3 0 -6 -9 -50 -22 -13 -6 -16 -14 -18 -17 1 -26 -4 3 14 4 -14 -8 -7 -6 -28 -5 8 -9 2 -8 -3 1 -7 -7 -6 -12 2 -5 -4 4 -2 -2 2 3 -4 3 -9 0 -17 10 -3 3 6 -3 -5 -17 -19 -7 3 -2 -1 -8 -13 -20 -4 -1 -6 -2 -10 1 -8 -8 -13 -27 -21 1 0 -8 -11 -15 -9 1 -12 -27 -15 12 -12 -1 -7 -23 8 -9 -52 -10 3 2 4 1 3 4 1 2 28 34 10 18 32 25 31 5 17 21 24 34 1 4 21 25 5 25 24 11 37 20 -3 26 22 13 11 16 22 -3 33 47 3 5 15 -2 7 6 17 3 21 26 -8 26 33 21 -4 4 32 21 35 2 19 5 30 -20 9 5 14 0 10 2 7 21 42 25 19 43 36 6 -5 15 12 12 14 30 26 18 22 28 30 23 29 28 32 -4 44 15 31 18 29 38 16 13 27 -2 26 16 1 1 17 -9 22 -4 43 7 1 25 30 27 10 42 12 10 30 15 -1 2 35 26 37 38 14 4 16 19 34 29 41 35 47 39 33 43 36 35 45 39 32 52 34 20 36 17 33 37 42 29 42 42 38 44 28 27 41 39 32 32 24 21 52 48 35 47 27 35 37 42 31 37 34 24 30 31 17 13 39 36 45 42 27 41 29 27 41 39 44 53 24 48 35 25 39 41 62 61 76 50 21 20 66 76 38 44 57 51 43 41 57 66 55 82 59 69 51 60 54 65 61 70 88 55 59 71 69 46 35 60 60 90 53 48 50 38 51 72 59 66 71 61 49 62 62 51 59 46 89 72 81 62 43 60 42 55 55 80 -11 3 9 3 -2 0 1 17 -20 15 -22 -4 5 -3 -7 0 -26 -13 -14 -10 5 -18 0 19 12 3 -5 -14 -5 -2 -12 6 -6 -8 -10 -8 -10 -26 -14 -6 -4 3 -7 -15 -11 -40 -38 -6 -4 -20 1 -3 -15 1 3 29 14 4 5 15 -1 -11 -19 -16
            768
            -1 -4 3 4 2 0 0 0 12 1 -9 -12 -5 5 -18 -6 4 -20 0 -19 -3 -10 -6 -12 -18 -12 -28 -10 -18 -28 -7 -13 -14 -25 3 -10 5 -13 -13 -3 -9 -36 -2 -11 -2 -4 3 -4 -16 -17 2 1 -2 4 -9 -8 -3 3 -3 -4 5 2 -3 1 -20 -34 -37 -29 -48 -3 -5 14 -18 -6 -70 -23 -69 -39 -61 -23 12 -12 -9 -53 -28 -31 -12 -61 -44 6 -10 -45 -9 -40 -31 -18 -11 -9 -28 -33 -41 -16 -12 -33 -45 -28 -2 -7 -17 -25 -17 -7 -27 -31 -38 -41 -23 -17 15 -39 -11 -25 -86 -63 -12 -21 -23 -16 -45 -36 -27 -17 -32 -28 -69 -43 -34 -32 -5 -2 -29 -24 -14 -23 -35 -9 -53 -36 -23 -18 -28 -33 -8 -13 -44 -33 -35 -51 -37 -12 1 -24 -37 -24 -32 -26 -30 -29 -23 -37 -34 -33 -27 -24 -17 -36 -6 -3 -52 -22 -38 -47 -35 -22 11 -23 -20 -33 -15 -39 -38 -38 -33 -41 -18 -27 -43 -26 -29 -33 -33 -33 -32 -38 -47 -44 -45 -30 -62 -53 -45 -36 -44 -50 -45 -30 -22 -51 -40 -37 -59 -48 -48 -37 -27 -19 -49 -29 -32 -29 -31 -36 -37 -24 -42 -55 -45 -37 -23 -32 -29 -34 -19 -54 -33 -22 -30 -57 -35 -23 -19 -27 -31 -24 -42 -43 -44 -49 -53 -77 -49 -47 -59 -46 -78 -45 -40 -51 -40 -43 -43 -45 -38 -64 -54 -58 -63 -47 -43 -46 -47 -45 -32 -46 -47 -41 -39 -45 -62 -34 -49 -96 -58 -55 -47 -48 -25 -55 -37 -64 -54 -50 -37 -49 -39 -59 -44 -60 -56 -60 -33 -61 -50 -74 -80 -46 -58 -66 -43 -36 8 1 21 20 18 13 12 29 26 1 -10 6 21 22 22 14 30 -8 14 22 11 12 22 6 22 21 3 -3 10 8 16 -7 20 2 9 -2 0 35 19 18 12 8 21 4 -5 26 27 9 32 -5 2 18 17 25 22 21 27 2 11 14 38 15 1 -1 4 -2 4 1 -2 -1 2 1 -1 7 5 35 -3 -11 -20 4 -4 -3 1 14 -3 -5 -5 -17 -6 11 4 0 10 9 -12 -8 -5 -9 -1 -27 -14 10 6 1 -18 -8 -2 -12 11 -23 -16 -19 -39 -28 -5 -19 -9 -4 -41 -34 -4 3 -2 0 -2 -2 0 -1 12 -3 -7 16 -13 7 14 30 1 15 2 11 24 5 12 -3 15 23 25 10 -20 11 26 27 17 -9 -9 -4 35 49 -23 23 2 12 13 23 22 23 28 22 30 -5 37 -5 10 27 13 22 -39 19 35 -13 14 28 20 28 36 25 7 42 14 9 32 35 5 19 25 35 30 23 12 10 13 19 1 10 9 35 34 12 29 18 8 -6 27 12 36 6 22 34 27 25 -5 18 17 25 8 30 33 21 15 33 22 11 23 33 22 44 4 11 17 38 -6 13 19 38 12 30 18 18 35 32 -6 13 21 22 -12 -6 24 19 38 41 36 37 52 27 12 29 17 31 26 41 26 31 37 35 45 51 28 35 42 22 27 29 11 39 39 25 44 40 25 37 45 36 31 48 35 29 32 34 31 53 52 14 44 32 45 33 34 22 28 48 35 26 41 53 41 37 54 31 19 26 46 64 34 71 56 21 56 73 25 19 39 52 72 69 69 72 27 63 45 41 56 56 47 77 54 50 48 40 40 50 75 63 40 68 84 12 50 63 41 58 28 64 58 56 62 20 65 54 63 61 63 67 46 51 61 29 24 45 58 55 46 31 61 40 21 10 6 2 4 23 17 15 25 23 21 8 10 15 20 1 9 2 17 6 4 13 25 17 10 10 12 -4 14 11 16 24 9 -12 16 19 9 20 14 17 28 24 11 7 -4 0 -6 11 3 24 4 18 27 15 5 16 29 5 10 13 13 3 -6 20
            768
            1 -4 3 4 3 2 -4 1 -5 6 0 -4 -7 -11 4 -5 -9 3 -8 5 -3 -24 5 0 5 -5 -10 -6 -6 -10 4 3 -7 2 -7 3 3 -1 -7 -4 2 1 11 -1 -6 1 -4 2 -5 4 -2 -12 1 3 2 1 3 2 2 2 3 2 -3 -3 -14 13 38 37 17 20 9 5 34 25 35 36 11 5 2 24 31 19 25 21 17 13 9 11 13 23 40 10 21 17 12 6 19 16 32 14 25 18 18 23 10 25 22 31 24 22 14 22 25 12 42 20 28 2 3 9 27 26 22 4 31 31 14 40 17 21 31 24 6 25 7 7 35 14 12 10 26 11 13 24 23 27 26 20 25 22 17 -20 16 21 19 29 28 22 36 3 9 35 19 11 12 8 33 8 34 8 9 22 7 17 30 23 18 24 12 18 24 18 10 6 9 31 14 25 21 36 35 12 38 35 40 42 30 33 43 24 41 49 9 55 26 43 31 36 35 24 39 41 39 43 42 32 39 28 20 42 19 34 33 36 43 48 35 29 28 46 14 37 51 41 36 55 27 44 34 30 40 41 44 31 40 45 33 43 36 42 36 42 36 34 46 31 53 42 67 54 63 64 73 60 60 61 67 58 45 50 43 57 54 61 75 65 54 67 60 61 43 49 72 68 56 51 67 54 66 47 62 80 52 73 48 57 64 48 47 50 58 67 56 58 54 59 56 46 52 62 75 39 75 50 59 40 40 69 51 69 9 2 12 17 1 -1 7 2 15 20 15 16 -1 0 10 10 19 12 -9 -9 1 0 18 23 -1 8 1 -11 -10 -3 16 16 11 13 17 8 2 8 3 21 15 16 8 6 10 8 -4 2 6 12 1 5 14 2 7 -3 11 4 19 20 0 2 5 10 -5 -2 -3 -3 -2 -4 -4 4 3 -4 11 5 2 4 -2 1 12 2 14 5 7 14 1 2 9 9 9 4 9 9 6 -4 21 -2 5 13 11 7 -4 6 10 -1 5 8 7 8 1 1 2 9 9 1 1 -2 9 11 -4 -2 3 -4 0 3 0 -2 -5 -6 -2 -7 -22 -15 -42 1 -1 -7 -5 -9 -28 -32 -34 -34 -12 -18 -13 -11 -37 -22 -9 -32 -12 -30 -36 -29 -24 -30 -20 -6 -5 -8 -20 -39 -18 -11 -28 -8 -32 -31 -12 -2 -20 -5 -25 -19 -12 -24 -35 -23 -11 -17 -12 -19 -20 -17 -38 -19 -24 -15 -14 -5 -9 -22 -25 -33 -18 -9 -45 3 -27 -20 -30 -10 -11 -18 -22 -36 -21 -18 -32 -18 -17 -36 -3 -19 -20 -15 -17 -20 -24 -7 -9 -10 -6 -22 -13 -17 -13 -17 -8 -39 -26 -3 -15 -21 -3 -19 -13 -12 -28 -28 -18 -22 -4 3 -13 -34 2 -29 -25 -16 -59 -8 -8 -36 -35 -37 -22 -36 -27 -32 -42 -34 -39 -37 -40 -41 -28 -38 -35 -32 -53 -54 -42 -49 -42 -39 -36 -44 -34 -46 -42 -41 -39 -32 -30 -24 -33 -27 -26 -33 -23 -37 -37 -40 -43 -34 -25 -34 -13 -28 -33 -31 -30 -36 -39 -33 -36 -32 -36 -14 -37 -39 -40 -34 -30 -42 -36 -34 -65 -44 -55 -74 -48 -56 -46 -62 -44 -35 -72 -67 -52 -75 -59 -43 -51 -58 -90 -51 -79 -61 -57 -76 -60 -71 -61 -56 -67 -44 -55 -58 -52 -68 -49 -49 -45 -38 -54 -36 -63 -56 -59 -70 -77 -44 -55 -49 -53 -71 -47 -50 -51 -47 -55 -61 -45 -51 -45 -34 -41 -60 -51 -38 -10 -18 8 3 8 0 7 19 2 -6 -4 12 17 4 -3 2 20 -3 15 2 6 8 15 -6 10 5 4 15 14 0 7 13 17 10 10 3 2 9 15 19 13 2 17 10 12 16 12 8 15 -3 6 -5 2 9 8 6 6 -14 8 12 -14 -5 -3 -24
            768
            4 1 2 1 2 -3 -3 -3 -4 7 9 15 12 10 10 8 4 23 -5 15 10 -5 1 0 7 2 24 5 2 -5 12 10 6 17 5 7 10 -5 2 4 16 10 3 2 11 6 7 16 9 5 13 13 3 11 1 4 3 5 0 -3 4 -3 -2 -1 22 15 17 26 22 17 23 12 30 20 11 37 14 -3 22 -5 5 24 19 18 38 0 -1 14 24 32 41 17 20 24 29 30 37 19 33 8 16 35 -10 45 25 9 2 28 18 26 22 23 6 18 26 34 24 11 24 27 18 25 24 24 17 21 34 32 8 9 17 22 4 19 5 29 20 25 24 33 21 13 19 5 6 11 14 9 20 12 19 7 2 26 30 11 14 25 9 12 12 26 20 20 21 11 12 21 14 11 26 7 32 38 22 33 27 20 46 29 29 25 17 17 21 8 22 21 23 23 29 17 28 27 40 19 31 27 25 39 23 21 24 10 37 22 34 39 25 31 34 40 44 29 40 43 22 23 27 24 35 26 22 30 41 26 41 30 36 33 32 20 32 36 38 33 25 10 24 21 27 14 23 23 39 27 23 22 33 25 35 35 22 31 16 23 65 45 56 53 58 68 47 60 53 61 60 52 44 54 48 46 65 65 62 55 66 65 60 43 37 53 55 39 53 67 62 57 47 54 63 61 69 64 60 62 63 63 52 73 72 55 86 69 81 49 55 62 56 60 54 69 63 58 51 71 68 47 60 60 11 7 18 4 4 10 27 6 10 26 21 34 -10 19 0 20 0 5 11 -2 8 12 6 19 16 11 2 9 18 9 10 -1 9 -3 9 0 4 6 2 13 24 18 -7 6 4 13 8 13 19 17 9 9 -5 17 15 11 1 -2 4 21 22 12 8 12 -2 1 3 -1 -2 3 -2 0 -2 -7 -5 -6 1 -1 1 -8 -4 -11 -5 -5 -7 4 -11 -3 -3 -5 3 -19 2 -10 -6 -15 10 -2 -13 -5 -8 9 2 -6 16 -1 -7 -22 6 -2 7 -1 6 -16 -3 5 1 -6 -13 -5 -2 -3 2 2 3 2 -2 0 -48 -31 -13 -9 -42 -35 -25 -5 -28 -37 -18 -36 -26 -33 -38 -27 -12 -26 -28 -15 -41 -16 -46 -25 -39 -46 -13 -7 -15 -28 -21 -24 -23 -27 -29 -10 -27 -21 -34 -34 -22 -11 -28 -30 -22 -18 -41 -8 -8 -13 -32 -36 -7 -26 -30 -8 -6 -23 -22 -17 -24 -13 -10 -17 -17 -23 -17 -34 -42 -22 -40 -9 -26 -12 -28 -28 -6 -18 -28 -31 -13 -28 -26 -35 -27 -18 -14 -32 -15 -16 -12 -27 -22 -28 -25 -35 -24 -36 -18 -26 -29 -22 -21 -31 -28 -37 -36 -25 -18 -18 -31 -14 -21 -38 -12 -11 -16 -30 -22 -41 -16 -21 -20 -25 -10 -24 6 -23 -23 -18 -21 -37 -31 -16 -23 -22 -22 -25 -35 -15 -33 -31 -13 -19 -31 -37 -20 -45 -22 -33 -16 -38 -20 -34 -33 -29 -26 -26 -31 -29 -30 -32 -22 -19 -30 -32 -33 -24 -39 -44 -33 -30 -43 -40 -41 -30 -18 -43 -40 -22 -24 -33 -24 -26 -27 -38 -32 -25 -28 -30 -38 -25 -65 -63 -57 -46 -59 -59 -45 -44 -58 -53 -69 -47 -64 -45 -51 -50 -58 -51 -66 -48 -49 -51 -47 -55 -65 -56 -57 -62 -63 -53 -59 -74 -64 -42 -67 -50 -50 -59 -60 -52 -48 -88 -75 -68 -62 -47 -74 -49 -62 -58 -76 -66 -58 -48 -64 -79 -61 -68 -56 -49 -53 -46 -65 -62 10 2 6 -10 10 8 12 7 3 10 5 5 4 11 8 11 15 18 -1 8 -1 12 -2 0 30 18 0 -2 4 17 23 19 29 6 7 4 16 15 12 26 12 17 -6 15 0 7 -3 21 4 24 16 -6 12 14 21 25 3 -10 7 -1 6 7 8 -3
            768
            4 -3 -1 0 1 0 -4 3 -5 34 10 1 -34 -63 23 0 -6 8 6 -8 9 6 3 12 0 12 6 3 2 -3 15 -6 -2 9 12 10 6 5 -5 -4 -17 22 -12 15 9 7 1 -2 -8 -11 10 -3 0 2 0 -2 1 4 -1 3 4 1 4 -3 25 21 30 32 -15 30 24 13 -12 7 55 43 12 -12 12 21 -1 -28 36 6 3 36 32 1 6 14 16 -4 -1 2 20 10 0 -13 18 13 11 7 -20 10 18 19 0 19 -4 -9 24 6 42 26 16 49 24 18 8 29 31 42 4 58 -12 12 -20 31 9 25 49 8 21 -12 -6 34 25 9 11 14 0 6 40 -6 -47 -3 19 1 7 31 18 15 23 5 11 25 11 27 13 48 8 15 21 26 -11 -1 8 38 31 6 -2 5 2 -5 21 21 40 30 15 24 -3 0 8 -2 18 -33 9 42 1 1 19 24 36 37 -3 0 32 10 27 25 33 31 18 20 25 22 49 25 55 55 15 16 10 33 15 64 57 32 13 29 17 30 20 50 50 30 22 20 13 37 16 18 31 40 40 20 39 45 36 61 52 47 13 29 31 35 59 45 44 36 24 22 37 40 34 32 26 26 43 28 59 30 42 67 53 24 48 23 64 74 43 57 82 47 32 59 54 2 61 72 83 69 40 63 56 66 60 49 47 60 44 55 43 30 50 65 58 44 43 59 40 54 57 64 85 46 61 38 67 75 43 8 41 85 88 43 39 74 63 43 13 -2 9 22 0 -14 34 4 0 13 26 28 20 16 21 11 10 0 0 35 21 -8 15 -4 2 2 12 23 12 9 -10 -24 6 15 -2 4 21 5 9 -2 14 12 6 -2 6 -7 4 8 20 -5 -6 4 13 13 6 4 -29 3 12 -2 18 8 10 9 1 2 1 3 -2 4 -4 0 9 -23 8 -6 -2 -32 33 -22 11 -24 7 0 -28 -26 29 -20 6 -24 -8 -4 8 -33 21 -30 -13 -30 -10 8 -7 -17 11 -29 -10 -18 6 -28 -2 -31 -5 -36 -18 -20 -4 -22 -3 -37 1 1 -1 0 -3 -1 -4 -1 1 -3 -4 -11 -34 9 -14 2 -36 -44 -18 -27 1 -31 -10 -27 -25 3 -28 -20 -15 -17 -25 -24 -19 -17 -10 -49 -21 -3 25 -30 -39 -46 -61 -5 -34 3 -25 -27 -18 30 -28 12 3 -13 -13 2 -18 -42 -57 0 6 -17 -1 -38 -30 -29 -28 -15 -5 -13 -24 -24 0 -52 -1 -41 -16 0 -7 -21 -28 -42 -53 16 2 -7 -22 -42 -31 -10 10 -14 -21 -36 -32 -27 -20 -1 -19 -25 -26 -15 -11 -15 -20 -18 -18 -18 -37 -18 -3 -12 5 8 -42 -40 9 -26 -21 -1 -1 -24 -52 1 1 -13 -8 -2 1 -12 -9 -1 -20 -10 -29 -17 -7 -2 -30 -36 -25 -26 -44 -39 -30 -55 -33 -22 -20 -16 -31 -26 -21 -34 -42 -51 -29 -33 -14 -41 -32 -36 -32 -15 -12 -19 -41 -42 -19 -39 -21 -43 -39 -26 -11 -44 -16 -42 -53 -31 -42 -28 -27 -61 -31 -41 -40 -30 -33 -29 -14 -40 -32 -38 -32 -32 -16 -28 3 -38 -29 -29 -44 -41 -16 -45 -41 -107 -26 -53 -63 -57 -45 -36 -56 -59 -68 -50 -60 -54 -50 -40 -54 -65 -39 -28 -92 -62 -44 -50 -40 -58 -57 -60 -77 -72 -59 -38 -54 -42 -39 -66 -42 -48 -39 -44 -44 -67 -49 -40 -58 -40 -43 -47 -48 -63 -46 -38 -67 -33 -32 -47 -44 -43 -40 -59 -5 -13 -1 37 -3 -1 8 7 42 22 2 1 -4 7 0 13 43 25 16 9 -4 8 20 18 16 0 18 5 -7 3 10 1 -10 -14 13 20 7 17 12 -12 16 3 2 -9 6 13 9 8 14 16 10 21 -3 31 9 18 -23 9 8 -10 -14 -12 -16 19
            768
            -3 -4 -1 0 -3 -4 -4 3 -3 5 -4 10 14 -1 15 -2 3 -8 -2 -3 14 5 20 -20 -6 6 3 7 9 -10 2 -10 -1 9 9 4 6 9 -5 -6 -1 5 -6 -13 17 -4 -2 -6 1 6 1 0 0 7 10 13 -2 -2 -4 1 3 1 2 -2 10 6 16 46 19 2 16 -1 11 23 38 36 24 19 4 21 14 24 25 20 18 26 26 21 18 26 32 54 40 25 38 1 20 21 39 15 15 18 -13 28 4 37 22 13 -3 25 13 8 2 16 10 20 15 7 8 21 -5 30 5 -8 9 7 25 32 32 49 6 33 22 22 23 24 35 8 12 26 25 34 20 36 27 25 17 42 37 36 35 15 28 32 27 28 46 24 23 18 36 32 31 24 42 30 33 33 15 37 22 15 16 21 31 10 32 21 28 26 11 22 49 32 -12 16 23 23 44 28 17 29 28 -4 34 46 47 38 41 55 35 40 42 42 41 30 48 50 46 34 44 25 25 40 40 28 45 34 36 47 39 41 51 30 32 26 44 44 37 43 47 33 52 43 42 55 43 47 43 53 58 18 31 30 42 39 40 20 31 32 31 36 33 34 20 13 58 87 62 56 57 74 71 51 59 70 65 70 65 48 66 71 80 42 62 54 61 37 41 54 79 54 64 68 63 50 64 65 26 60 65 56 71 71 77 44 77 45 70 51 69 56 67 68 71 59 60 69 50 56 71 59 53 64 81 59 62 86 66 54 10 4 -2 6 -3 13 -2 15 2 18 -1 -11 3 -2 9 19 3 -1 8 10 4 3 13 19 1 12 -4 4 5 12 2 8 -9 -3 13 1 13 7 7 14 -15 9 1 -3 -4 -9 14 15 13 -11 -1 -8 -13 -3 9 15 -5 33 23 -15 0 3 15 16 -4 -3 -2 2 -2 -2 -1 3 -9 3 -19 0 -3 -15 -5 -11 -5 14 -3 -2 -15 -17 3 -1 -13 8 -15 -9 -17 -15 -12 -9 5 18 -11 -6 -14 -22 -11 -8 -2 -5 -1 15 7 -23 -9 11 -10 13 -7 4 -17 -18 2 1 3 -5 -1 -4 0 3 3 -2 -20 7 -9 2 -4 -12 -11 -15 -5 -7 -10 0 -21 -23 -11 -34 -16 -29 -25 -21 -25 -10 6 -25 1 4 -16 -26 -24 -18 -20 -25 -18 -21 -14 -33 -30 -25 -6 -6 -17 -25 -34 -23 -20 -44 -34 -1 -36 -37 -7 -32 -22 -31 -29 -27 -35 -14 -12 -26 -16 -12 -8 -4 1 -17 -24 -20 -19 -16 -27 5 -23 -35 -42 -21 -28 -46 -27 -19 -21 -38 -12 -6 -13 -25 -58 -22 -16 -29 -36 -21 -27 -1 -14 -5 -10 -37 -32 -30 -10 -7 -10 -29 2 -22 -18 -32 -1 -43 -9 -24 -14 -17 -9 -43 -9 -27 -19 -20 -13 -8 -23 -32 -14 -15 -23 -13 -23 -22 -31 -28 -28 -34 -37 -34 -21 -32 -25 -32 -42 -25 -41 -41 -27 -28 -38 -26 -22 -36 -31 -23 -25 -55 -26 -25 -50 -38 -32 -17 -41 -22 -24 -42 -20 -40 -10 -22 -18 -48 -14 -36 -22 -42 -30 -37 -32 -32 -28 -45 -33 -38 -34 -25 -12 -27 -24 -22 -28 -24 -23 -22 -57 -38 -59 -60 -70 -51 -53 -57 -64 -47 -62 -58 -46 -80 -53 -68 -50 -53 -52 -51 -40 -50 -44 -58 -51 -78 -49 -53 -64 -58 -65 -52 -52 -53 -45 -60 -52 -56 -64 -35 -66 -31 -59 -53 -73 -40 -55 -35 -53 -65 -44 -48 -64 -61 -39 -43 -69 -68 -50 -49 -48 -34 -45 -27 -24 -11 11 1 10 4 3 7 -20 -3 -1 -2 1 -12 4 12 -12 15 16 -5 17 13 -3 6 9 18 14 12 16 9 -8 -10 5 -1 7 13 8 5 20 2 -5 19 22 -3 7 5 5 13 36 6 30 4 -8 -7 6 8 9 14 1 16 9 5 33 14
            768
            2 2 1 -2 -1 -2 2 1 0 22 1 1 21 25 26 23 28 16 15 21 6 23 16 11 12 14 25 8 20 14 7 14 13 11 16 13 -7 4 4 11 3 6 7 16 4 5 13 17 14 -6 8 13 -1 -1 11 14 3 -4 -5 4 -4 -1 0 -4 32 -3 39 4 20 13 4 10 -2 15 27 15 34 13 12 26 19 18 4 3 15 26 -7 -26 15 30 32 0 4 34 17 33 33 15 -5 17 23 28 38 23 -33 13 14 44 15 7 15 26 6 -1 8 21 18 54 57 -20 11 22 16 54 37 0 26 12 6 6 -16 22 32 2 31 20 -5 19 25 20 37 10 25 22 -20 36 24 -1 -4 14 -8 18 14 17 12 14 26 16 28 20 17 5 14 20 18 1 3 39 31 17 15 29 21 14 8 24 14 26 20 23 13 -3 28 25 6 18 27 15 2 8 5 15 21 17 35 19 27 26 30 29 3 23 0 13 10 37 18 24 17 12 15 27 47 18 43 29 17 26 28 12 35 12 42 13 21 24 30 13 24 28 26 12 38 22 32 14 26 21 16 56 40 25 21 29 23 27 19 27 24 30 21 15 33 8 25 22 52 45 48 37 67 55 62 57 16 41 35 57 87 56 38 57 54 40 43 30 46 10 22 48 16 27 58 58 55 81 74 39 42 46 47 32 51 57 53 51 47 42 40 59 45 36 43 54 45 23 45 43 21 64 44 54 38 14 55 43 37 63 42 45 -10 12 -4 -5 24 17 -2 5 16 0 11 26 13 16 0 6 22 13 8 9 15 20 15 10 17 14 14 22 5 20 17 6 9 9 10 23 18 12 13 -2 5 8 13 17 22 14 4 11 -24 -27 11 19 5 13 -3 4 3 -13 5 12 13 5 0 -1 2 -3 -4 4 -1 1 -3 -3 -1 2 -14 7 4 3 -22 2 -6 -5 -5 7 -27 -7 -27 -1 -6 -6 -15 -10 -20 -8 -33 3 -5 0 -35 -8 -23 -15 -47 0 -17 -4 -21 -16 -17 -4 -23 -10 -10 16 -11 2 -10 3 -6 5 -3 -4 2 0 -4 -4 0 3 -36 -19 -40 -26 -40 0 -44 -25 -25 -24 -28 -33 -38 -22 -27 -22 -16 -36 -16 -44 -18 -47 -31 -10 -41 -33 -13 -32 -23 -9 -35 -40 -8 -13 4 -16 -21 -27 -4 -11 -46 -25 -15 -9 -45 -13 -15 -12 -26 -21 -11 -39 -32 -36 -11 -8 -41 -12 -30 -15 -25 -22 -6 -7 -26 -8 -15 -26 -27 -21 -10 -15 -10 -18 -16 -20 -29 -38 -31 -34 -35 -28 -14 -26 -29 -34 -21 -15 -9 -5 -23 -28 -31 -16 -11 -25 -22 -15 -19 -27 -16 -15 -14 -27 -41 -32 -40 -33 -10 -21 -17 -24 -8 -29 -16 -19 -20 -18 -5 12 -32 -12 -40 -43 -13 -12 -20 -20 -39 -24 -32 -36 -46 -28 -45 -45 -28 -30 -44 -31 -41 -27 -38 -21 -39 -37 -32 -46 -49 -37 -28 -34 -38 -39 -34 -42 -37 -31 -38 -35 -36 -32 -38 -34 -35 -32 -48 -36 -16 -19 -47 -35 -45 -41 -49 -26 -22 -27 -34 -29 -44 -41 -36 -30 -26 -37 -41 -31 -37 -32 -43 -32 -72 -93 -58 -70 -80 -67 -73 -50 -75 -61 -65 -65 -72 -75 -69 -79 -69 -72 -86 -72 -63 -62 -68 -52 -91 -67 -61 -56 -87 -76 -74 -64 -66 -88 -66 -77 -74 -68 -63 -56 -79 -72 -69 -36 -80 -68 -82 -68 -56 -83 -75 -52 -83 -65 -52 -62 -44 -77 -39 -67 -61 -62 -74 -91 18 29 18 0 7 13 19 27 17 8 6 6 5 20 19 17 19 18 21 -7 -5 4 12 21 -1 -13 19 6 12 -4 4 12 10 10 8 1 0 0 1 11 10 18 14 3 0 2 -3 1 19 -11 17 -14 15 14 2 -17 10 -3 5 18 6 9 13 11
            768
            -4 0 -4 3 0 1 -3 1 -18 -37 -34 -36 -38 -31 -55 -20 -32 -30 -26 -32 -34 -27 -32 -44 -40 -23 -22 -25 -29 -25 -31 -36 -37 -23 -29 -37 -36 -30 -39 -35 -26 -24 -33 -34 -32 -29 -31 -29 -31 -32 -31 -21 -1 -35 -31 -31 -4 1 -1 -2 3 -2 2 1 -25 -1 24 28 18 30 21 54 27 31 -4 -12 -3 17 11 32 14 -3 -3 -5 -3 -8 4 6 5 8 -3 4 9 -3 -4 22 13 23 -5 -6 4 4 -8 8 20 3 2 18 6 3 2 27 9 12 14 4 18 16 28 18 45 16 18 19 40 16 14 17 -9 10 20 3 22 -4 19 6 11 -2 -8 0 0 -19 4 10 6 1 0 -5 2 -13 -8 16 9 1 -4 -5 -12 -4 -9 3 -4 -6 -17 -13 -5 -4 -8 5 6 0 -14 -9 -3 1 3 4 5 -5 -7 -4 -1 3 -8 8 30 41 17 -3 25 -9 1 -5 47 44 39 41 49 54 45 42 35 26 44 27 27 47 31 46 44 43 49 34 54 42 56 41 44 44 51 41 50 44 38 48 44 43 57 49 50 50 42 51 47 41 54 40 53 45 51 50 55 45 44 54 48 50 52 44 53 46 46 47 46 49 55 57 62 62 40 76 61 26 53 57 44 38 45 52 21 41 31 40 51 55 44 23 51 50 59 47 65 49 42 53 48 43 47 38 51 45 40 32 45 53 46 41 29 46 65 44 57 48 55 51 46 33 52 52 51 46 53 60 51 47 45 48 58 46 71 43 9 25 -2 10 22 -20 -12 16 17 1 13 5 14 7 8 4 21 14 12 -5 0 16 -3 22 -5 5 11 -2 -8 15 -3 6 19 11 0 6 12 7 4 20 13 7 8 10 19 2 10 19 13 -4 16 22 16 3 6 17 8 13 11 29 27 12 5 15 0 3 -1 1 -2 3 2 1 32 35 32 28 2 36 35 31 23 27 33 29 26 34 31 31 24 28 31 27 33 33 28 31 23 39 29 21 30 30 38 36 17 27 33 30 25 28 26 38 35 30 40 31 18 40 26 30 -2 2 3 0 3 1 4 2 -49 -25 -38 -43 -44 -29 -25 -52 -31 -65 -22 -7 -10 -38 -36 -12 -42 -19 -9 -17 6 -3 -26 -18 -28 -15 6 -2 12 -7 6 -13 -2 -18 3 4 1 -3 1 -26 -22 -26 5 -9 0 -4 10 2 -23 -18 -10 -6 -10 -5 -28 -38 -38 -26 -9 -14 -18 -30 -2 -44 -27 -20 -9 -4 -27 -2 4 -13 -7 2 -7 5 -7 -12 -4 -1 -2 4 -3 -2 5 -2 3 -10 4 1 -1 10 2 0 23 -18 -27 -3 8 4 2 2 9 -17 -1 -3 1 9 -16 2 -16 -1 -5 -18 -2 8 7 -3 -21 -18 -7 -14 -2 17 -14 -10 -25 -14 -61 -49 -49 -47 -50 -57 -55 -70 -42 -52 -43 -53 -58 -64 -46 -54 -49 -45 -61 -53 -61 -56 -53 -55 -59 -52 -53 -38 -40 -46 -48 -58 -55 -48 -56 -57 -38 -47 -54 -39 -49 -47 -39 -41 -42 -57 -45 -42 -49 -42 -34 -37 -30 -28 -40 -39 -32 -43 -35 -41 -34 -46 -55 -50 -58 -50 -63 -50 -48 -55 -59 -48 -55 -39 -51 -46 -49 -36 -40 -51 -60 -48 -40 -38 -42 -37 -44 -54 -34 -49 -43 -36 -31 -41 -32 -44 -51 -47 -39 -32 -41 -30 -36 -61 -51 -52 -30 -25 -37 -37 -44 -56 -40 -37 -38 -56 -50 -31 -41 -49 -40 -51 -77 -37 -71 -46 -29 -71 12 -1 5 -25 -2 11 11 8 -6 3 10 -2 8 6 16 6 -18 12 16 11 10 14 16 4 -4 15 13 7 17 19 3 -7 -10 8 26 24 31 21 14 -17 2 -4 26 19 27 18 8 -16 -14 -5 -10 8 5 -16 9 -22 -22 -7 -19 13 16 4 -13 -19
            768
            0 -1 4 1 0 3 3 -4 1 -14 1 -23 8 -1 19 -6 33 -12 8 4 -16 -3 -12 -20 3 -11 10 8 18 0 -22 -25 12 5 7 -1 -6 -5 -15 2 3 9 3 -2 -3 11 0 0 11 3 12 3 -2 4 4 11 2 -1 -2 1 0 -3 1 -3 0 -33 -29 -15 -28 -27 -1 -36 -26 -31 -45 -2 -11 -33 -22 -12 -27 -20 -20 -23 -13 -63 -23 -29 -4 -18 -45 -23 -15 -14 -42 -32 -36 -5 -7 -16 -36 -26 -44 -29 -5 -32 -20 -22 -21 -34 -33 -21 -7 -8 -27 -10 -56 3 -23 -7 -15 -21 -1 -20 -19 -9 -25 -1 -60 -9 -37 -48 -35 -40 -43 -8 -20 -40 -17 -26 -15 -34 -14 -11 -4 -38 -9 -17 -23 -10 -27 -38 -12 -17 -19 -1 -11 -30 -17 -15 -24 -32 -20 -23 -15 -27 -45 -36 -8 1 -12 -21 -3 -10 -28 -42 -23 -28 -5 -34 -38 -22 -27 -16 -13 -36 -15 -31 -2 -17 -5 -10 -30 -30 -30 -8 -69 -10 -43 -21 -31 -36 -17 -6 -21 -5 -30 -17 -68 -33 -49 -30 -48 -10 -43 -36 -4 -21 -25 -11 -36 -10 -13 -40 -57 -35 -39 1 -36 -27 -50 -30 -36 -38 -23 -10 -45 -18 -19 -22 -30 -16 -12 -16 -42 -37 -53 -74 -41 -23 -42 -24 -34 -34 -38 -22 -27 -51 -63 -53 -79 -53 -49 -49 -34 -40 -50 -44 -28 -69 -52 -36 -57 -37 -69 -90 -42 -53 -70 -74 -89 -49 -52 -36 -54 -63 -49 -25 -63 -53 -39 -60 -55 -49 -50 -51 -61 -60 -30 -37 -41 -44 -58 -43 -48 -33 -75 -52 -73 -31 -39 -65 -58 -33 -59 -55 -38 -42 -24 -57 0 14 25 -11 14 12 -24 16 40 19 20 12 -1 -15 -1 21 18 -3 7 7 -32 27 6 -23 -1 -11 -17 29 -18 12 -1 0 -7 11 3 12 -9 18 -7 -15 10 4 13 20 4 14 -2 -1 12 -13 -12 -10 -6 7 -10 -1 -54 -9 4 -1 -16 -22 -8 -10 0 2 2 1 0 -2 0 2 -5 3 -5 -1 4 5 5 -3 -2 -6 6 6 -28 -4 3 8 -10 6 7 8 14 2 0 17 7 -7 15 -2 -11 14 1 12 -6 24 18 -4 5 -3 -13 1 -8 -19 22 12 -27 16 16 13 2 -1 -5 -3 2 -1 -4 -1 -53 4 27 43 11 18 24 31 13 14 34 38 25 27 -6 38 25 13 19 -7 19 23 14 -8 29 24 42 15 22 38 35 28 20 31 22 25 8 33 32 55 48 24 14 28 23 26 26 20 -7 -11 21 22 4 -17 -23 -7 33 3 5 5 -18 -20 37 5 26 22 18 11 -3 29 39 30 22 29 12 46 28 37 8 33 8 21 14 14 20 5 42 1 52 17 31 38 27 42 26 26 9 17 44 48 23 23 32 27 7 18 -18 52 31 25 32 39 22 17 60 9 32 10 -3 0 25 33 25 40 23 3 26 45 31 47 44 32 39 32 35 33 32 31 18 32 37 47 57 50 28 31 32 17 44 50 26 38 30 8 31 41 59 39 33 30 33 47 45 42 58 80 36 44 24 28 19 17 45 22 29 6 15 37 45 9 59 12 37 32 46 39 43 9 54 10 40 45 39 26 68 53 48 76 45 53 65 68 50 75 39 41 79 57 60 63 61 53 55 60 48 52 53 53 44 63 53 56 53 49 57 69 46 60 57 61 59 70 60 57 49 58 64 58 72 63 70 83 37 86 51 31 38 55 64 57 81 73 62 76 39 29 -39 -5 -10 -43 6 6 12 13 -20 6 3 4 -9 8 10 21 -18 15 -10 -4 -33 -25 -14 -2 13 -8 -17 26 -8 2 -8 -12 -16 1 -13 8 -29 -2 -14 3 2 -12 -4 13 -1 8 -9 4 5 8 -18 8 -33 -9 7 13 5 -5 -39 10 18 19 0 26
            768
            1 -4 -1 -1 2 1 3 -1 9 -13 -2 -7 -13 -2 0 -9 -24 6 -26 12 -6 -24 -11 -25 -3 -8 -23 20 -21 -10 -3 -3 -8 4 -20 1 -11 -8 10 -8 -36 9 -34 4 -55 -8 10 -15 -9 -8 -5 -6 -2 -2 17 -3 -4 2 -3 -1 0 0 4 3 3 -19 -19 -29 -18 -9 4 -18 -23 -44 -10 9 -24 -34 -26 -10 -23 2 -36 -10 -28 -5 -6 -14 -35 -24 -21 -24 -9 7 -15 2 -31 -31 -36 -20 -20 -8 0 -50 -33 -18 -32 -25 -9 -3 -23 -23 -5 -38 -34 -21 -34 -6 -45 -20 11 -14 -22 -24 -9 -13 -25 -28 -30 -6 -15 -20 -21 -3 -18 -21 -24 -39 -23 -24 -28 3 -41 4 -28 -20 -14 -6 -6 -24 -7 -35 -15 -27 3 -6 -37 -23 -24 -7 -9 -23 -18 -11 -12 -23 -8 17 -9 -14 -38 -44 -4 -20 -28 -1 -9 -17 -42 -12 -16 -4 -19 -24 -17 -94 -46 -24 -35 -27 -3 -15 -37 -30 -50 -21 -37 -38 -23 -59 -35 -2 -31 -29 -28 -10 -44 -25 -31 -21 -49 -25 -21 -46 -57 -32 -49 -31 -27 -30 -13 -30 -45 -28 -12 -30 -42 -20 -28 -18 -47 -10 -31 -33 -41 -19 -33 -24 -21 -30 -19 -36 -36 2 -31 -17 -25 -30 -47 -33 -40 -35 -26 -23 -13 -23 -56 -89 -52 -60 -42 -55 -36 -55 -43 -48 -52 -88 -44 -84 -16 -58 -71 -52 -91 -43 -55 -49 -41 -60 -63 -41 -69 -55 -73 -51 -66 -60 -73 -81 -71 -52 -40 -54 -73 -81 -51 -49 -87 -56 -67 -49 -51 -51 -44 -43 -62 -64 -45 -57 -42 -61 -50 -55 -53 -27 -43 -65 -27 -65 8 16 21 6 12 7 -39 -27 24 -7 -13 -8 8 25 -8 -2 5 5 3 11 4 12 7 2 -18 1 14 15 13 -4 -11 -5 3 15 9 25 14 -5 5 -4 -6 36 15 20 10 -13 -14 0 -12 10 0 -3 -1 4 -2 -3 -37 -7 9 11 10 -6 11 -13 -1 1 -2 -4 1 0 0 2 19 18 8 1 1 -3 5 10 3 5 -2 10 34 -6 6 11 1 -1 3 -18 -18 -13 -5 9 15 -13 6 26 2 10 8 27 -3 0 6 6 14 -11 9 -10 2 -12 3 12 23 15 25 -8 -2 -3 -3 5 1 -2 2 2 26 22 7 33 -11 17 -61 3 -24 19 24 17 24 10 56 10 9 17 35 -9 35 17 2 33 0 16 18 44 21 3 -39 -3 18 -7 27 43 -13 2 13 -11 34 -5 -9 45 32 -9 26 20 21 5 42 -14 4 44 28 9 -5 23 9 -30 41 24 -8 15 13 28 5 6 11 6 16 5 30 11 12 25 21 32 23 50 -12 39 -6 21 12 34 39 -3 33 11 14 24 13 9 9 12 31 15 11 26 43 34 3 16 43 42 23 49 -1 21 16 -8 31 29 16 19 38 -2 45 0 40 5 8 40 -7 3 23 24 21 26 40 21 23 29 19 16 -3 23 23 32 40 43 38 2 26 42 31 19 46 24 3 17 47 53 66 47 32 50 39 37 29 3 24 24 41 14 29 39 34 32 23 48 25 24 45 47 51 18 54 27 32 40 29 22 27 38 29 8 27 38 26 28 60 74 56 33 34 54 36 63 24 45 34 60 57 66 35 62 35 54 61 63 51 60 49 58 52 66 74 54 52 40 67 59 84 47 23 68 57 59 52 68 57 61 62 64 74 91 47 72 40 42 28 62 49 59 82 94 42 20 55 74 51 52 62 80 14 8 -3 -13 -8 4 6 1 14 -6 2 3 6 11 0 -8 -11 3 7 12 1 4 5 11 3 15 3 14 -1 -1 10 -16 15 7 -3 18 14 29 11 -36 18 27 4 18 1 -6 -18 3 -10 -56 19 -1 7 -95 -23 0 -17 5 -18 3 10 16 26 13
            768
            -4 -3 0 4 4 -3 2 -4 -1 -1 14 -13 22 15 1 -10 8 9 -2 27 22 12 8 7 13 13 13 6 20 13 12 10 4 15 -2 3 5 0 2 5 18 8 9 2 5 -3 -7 -9 3 28 11 12 4 9 -2 4 -3 -1 4 -2 0 2 1 3 14 12 35 27 23 29 32 28 3 18 -31 11 21 28 20 8 12 3 1 18 12 43 37 -6 13 12 -1 28 32 7 23 7 6 6 17 34 21 25 6 13 27 25 34 -6 28 6 13 10 44 36 45 30 5 25 16 40 -8 6 28 18 6 23 8 14 28 17 18 2 11 10 5 21 2 16 22 47 26 14 21 36 19 9 29 29 21 20 16 57 0 25 -6 19 20 5 42 23 23 14 21 18 6 36 33 33 16 16 -3 9 14 11 5 7 44 29 10 27 15 27 13 1 23 -12 17 5 10 11 11 23 53 43 20 40 34 35 42 48 40 22 48 34 26 49 32 24 39 28 28 40 31 30 28 45 23 23 30 20 33 10 21 50 34 28 35 33 20 14 26 23 34 29 43 26 47 24 26 39 16 57 24 17 24 18 26 44 33 13 32 29 34 36 51 36 42 68 79 65 64 54 58 70 32 25 29 68 35 51 56 66 65 67 44 39 45 61 78 60 67 42 41 89 40 48 87 49 32 63 64 59 66 65 67 55 66 39 35 52 56 84 72 60 48 78 52 43 54 51 71 78 58 68 20 50 30 54 43 39 8 4 17 12 -1 14 24 15 5 18 7 17 7 10 24 14 -7 16 14 -2 5 17 10 6 15 14 10 20 17 10 11 10 1 12 2 15 -6 11 21 7 -4 5 2 30 20 19 9 2 -3 11 28 18 23 9 5 16 2 -3 -1 -7 15 3 -1 -8 1 -3 -1 -1 -4 -4 0 3 5 -15 -4 -4 1 0 -11 -6 -2 -10 -10 3 4 8 -17 0 -9 -14 -5 14 -12 -1 -6 -3 -2 -13 -5 0 -17 -9 -26 -4 -19 -6 -19 15 -11 -7 -3 -13 -1 19 -1 -13 -6 -5 -27 -2 3 1 4 1 4 3 -2 2 -18 -33 -15 -5 -27 -32 -15 -1 -2 14 -53 -46 -34 -4 -25 -26 -3 -14 -41 -33 1 -36 -19 2 -19 -17 -10 -5 -34 -3 -18 -7 -38 -19 4 -1 -20 -11 -13 -23 -33 -20 -17 -33 6 -3 25 -30 7 12 -13 -26 -2 1 7 -3 -8 -24 -15 -16 7 -22 -4 -17 -29 -31 -31 -18 -4 -10 -17 -26 -40 -23 -39 -45 -21 -20 -12 2 -32 -19 -16 -22 -20 -4 -42 -10 -24 -18 -13 -8 2 -14 4 13 -12 -11 -19 0 -30 -6 -24 -14 -10 -31 -4 -6 -15 -20 -11 -16 -37 -7 -47 -6 6 -11 -22 -13 -6 -1 16 4 -37 -7 -16 -6 -39 -54 -59 -52 -59 -54 -45 -41 -41 -55 -33 -29 -53 -32 -36 -25 -18 -35 -41 -18 -33 -24 -27 -22 -16 -20 -43 -24 -32 -33 -43 -46 -15 -45 -49 -33 -43 -37 -59 -50 -33 -27 -23 -44 -46 -33 -58 -46 -27 -27 -32 -28 -29 -34 -44 -40 -34 -39 -30 -36 -32 -29 -30 -46 -80 -46 -72 -69 -41 -42 -61 -63 -57 -54 -79 -79 -89 -68 -51 -73 -74 -75 -67 -57 -73 -51 -52 -62 -80 -58 -61 -60 -58 -64 -42 -44 -57 -36 -68 -54 -76 -49 -51 -76 -54 -66 -69 -30 -52 -54 -51 -39 -58 -54 -67 -59 -62 -36 -50 -59 -51 -62 -47 -43 -61 -55 -74 -58 8 19 20 14 -3 -2 9 10 7 4 8 4 18 12 25 25 1 24 7 -7 -3 3 13 25 8 24 0 13 -3 6 -1 2 9 15 4 8 0 6 23 7 -2 14 5 9 9 9 17 14 11 4 -9 22 13 21 -9 -4 11 11 16 17 10 15 21 20
            768
            -2 3 1 1 5 -4 -1 2 10 -27 10 8 17 15 7 14 13 18 18 15 29 11 8 13 17 13 16 16 10 10 21 4 14 21 10 2 -2 10 10 11 13 17 4 10 7 13 12 18 13 14 12 1 0 13 10 7 -2 -2 4 2 2 -5 -1 1 43 0 25 -1 -9 26 13 10 30 20 2 23 8 -10 -10 0 9 28 14 -15 -5 0 3 17 26 -1 -8 1 2 0 -7 14 3 16 6 23 3 6 17 20 16 2 -2 7 13 15 8 4 28 6 11 13 20 8 5 13 11 22 11 30 33 23 10 -1 10 18 33 -1 14 13 24 18 20 9 18 3 -3 -2 20 14 15 -7 11 6 6 6 13 -7 19 5 14 2 11 3 -11 4 1 11 0 -5 4 3 -15 -4 -13 8 14 11 7 3 5 0 24 -8 -4 0 2 7 -8 17 14 -2 -4 9 27 -1 15 -60 29 21 34 19 15 26 29 20 18 10 21 6 23 32 38 15 19 19 25 9 27 8 45 24 24 33 24 27 10 30 13 13 19 12 23 15 18 18 19 18 19 26 16 14 15 25 10 17 17 15 9 11 21 21 22 27 40 23 23 21 21 22 19 50 43 36 5 35 19 44 31 22 36 43 38 73 27 67 45 36 27 39 42 31 41 51 59 39 38 41 30 44 36 30 26 32 33 26 47 54 39 52 44 31 46 27 37 36 40 32 29 17 19 39 41 40 39 38 37 -11 8 50 54 34 56 26 53 40 4 0 5 -3 4 -9 -16 -13 8 -1 1 5 24 -2 2 -27 1 21 17 8 7 18 22 5 11 15 11 20 15 21 15 25 17 4 30 15 17 23 10 22 9 10 21 25 21 23 12 17 0 10 12 26 27 16 2 -6 7 -11 0 25 15 4 -19 -15 -1 -1 1 2 2 1 4 -3 -11 -19 -12 -19 2 -12 -4 -8 -11 -19 -7 -19 2 -10 0 -18 -16 -22 -11 -13 13 -5 -7 -16 -5 -19 -12 -17 6 -7 -13 -8 -10 -25 -8 -4 -12 -7 -7 -18 -15 -23 0 -18 -22 -14 -27 0 -1 3 -4 4 4 1 1 3 -52 -25 -30 -55 -57 -39 -23 -14 -19 -23 -25 -33 -38 -12 -24 -29 -30 -34 -20 -23 -18 -8 -23 -27 -17 5 -19 -23 -28 -15 -16 -34 -37 -16 -25 -10 -11 -2 -12 -32 3 -35 -5 -16 -15 -23 -15 -22 -28 -16 -21 -10 -10 -11 16 -43 14 -12 -25 -42 -21 -22 -9 -22 -18 -23 -14 -28 -19 -7 -36 -22 -5 -22 -13 -20 -19 -6 -14 -31 -24 -15 -18 -22 -31 -27 -21 -25 -8 -24 -14 -6 -4 -9 -12 -32 -14 -7 -23 -9 -12 -13 -25 -27 -27 -14 -22 -17 -11 -11 -23 -13 -4 -15 -17 -30 -11 -28 -9 -32 1 -21 -8 -1 -16 -6 -26 -34 -64 -51 -53 -51 -42 -44 -42 -63 -60 -41 -55 -49 -42 -47 -49 -49 -49 -46 -31 -34 -36 -27 -42 -36 -32 -38 -41 -37 -38 -27 -34 -40 -45 -40 -34 -38 -25 -25 -38 -38 -45 -41 -29 -38 -31 -33 -22 -25 -30 -42 -35 -33 -24 -31 -28 -35 -29 -44 -39 -42 -30 -41 -17 -34 -55 -103 -80 -104 -93 -98 -48 -56 -71 -77 -85 -86 -86 -76 -78 -69 -56 -83 -75 -88 -83 -83 -77 -83 -72 -65 -85 -83 -65 -79 -74 -72 -67 -79 -69 -88 -69 -82 -76 -72 -77 -71 -71 -75 -75 -68 -57 -55 -72 -76 -73 -62 -71 -73 -59 -54 -62 -84 -66 -57 -65 -68 -58 -63 33 34 11 3 4 15 38 31 32 14 0 -11 -7 -4 20 23 14 -2 -12 1 -5 -3 11 6 -12 24 10 6 -3 4 17 11 9 16 2 6 4 20 8 15 8 1 0 18 12 10 21 14 -3 6 10 5 13 15 1 6 18 14 25 15 9 5 15 15
            768
            -4 -2 -3 -2 -3 -2 1 -1 11 -7 17 19 14 -15 14 -5 -3 -4 9 -8 3 6 -3 1 6 11 7 5 -1 5 3 2 10 10 10 7 11 13 14 12 1 7 6 8 13 7 13 12 9 11 12 12 -3 16 17 13 0 -3 2 4 3 1 -1 1 32 20 4 8 18 14 22 28 8 13 14 41 18 21 22 15 30 25 18 31 8 10 24 29 28 18 24 21 23 30 14 19 27 19 15 26 25 28 8 19 17 29 23 33 34 17 14 34 11 15 13 25 19 19 21 -5 11 23 17 3 19 5 12 23 10 15 18 13 13 20 18 14 14 19 10 11 8 17 31 25 22 13 14 19 13 19 20 28 7 18 8 16 22 14 36 20 11 15 20 20 17 16 20 7 19 15 23 25 21 25 8 17 17 20 24 16 22 22 24 23 28 17 26 27 27 28 26 0 31 37 41 28 34 38 38 34 34 29 36 33 23 27 19 39 41 28 31 35 34 34 32 26 31 39 37 26 27 41 41 25 34 39 25 36 30 37 37 37 46 31 29 37 31 33 35 22 36 19 30 36 18 29 46 17 25 36 27 35 23 38 15 28 54 59 54 36 47 47 52 63 52 68 53 47 48 48 64 49 57 51 58 56 58 62 54 60 54 57 44 48 51 55 59 63 60 51 51 61 58 58 64 71 58 53 64 76 61 56 55 52 57 45 60 61 52 64 48 60 59 59 57 67 60 49 64 67 11 7 2 21 19 14 21 -2 10 16 -1 -1 -3 20 10 22 8 4 13 9 16 12 19 17 9 14 14 9 17 14 15 19 17 11 9 9 11 5 4 7 12 25 11 10 15 12 4 11 9 15 17 -6 13 11 7 13 8 13 6 3 6 6 23 13 3 -3 4 -3 1 -2 4 4 -8 -7 -15 -23 -2 -17 -6 -7 -7 -4 -15 -12 -17 -9 0 -10 -7 -7 -10 -5 -10 -5 -1 -1 -8 -4 -9 -18 -11 -21 -4 -8 -12 -3 -20 -4 -11 -12 0 -1 -10 2 -1 -2 -13 -2 -8 -1 4 -3 -1 -2 1 -2 0 0 -17 -23 -28 -9 -22 -23 -27 -12 -27 -21 -5 -10 -17 -22 -28 -19 -15 -16 -17 -20 -25 -23 -12 -23 -24 -35 -11 -21 -51 -8 -26 -5 -18 -32 -30 -33 -11 -22 -30 -14 -20 -26 -37 -22 -19 -47 -43 -28 -15 -21 -17 -18 -24 -33 -26 -9 -14 -22 -28 -26 -31 -11 -10 -2 -8 -27 -26 -27 -14 -29 -26 -6 -3 -28 -12 -18 -15 -26 -17 -21 -26 -15 -6 -25 -15 -30 -27 -32 -15 -28 -27 -31 -21 -24 -21 -17 -33 -23 -26 -16 -28 -33 -22 2 -13 -11 3 -22 -21 -13 -22 -21 -16 -30 -18 -23 -43 -20 -18 -23 -8 -14 -28 -25 -21 -16 -28 -15 -23 -30 -36 -34 -26 -25 -34 -22 -19 -26 -23 -24 -26 -28 -31 -44 -27 -27 -35 -33 -40 -28 -46 -37 -43 -26 -35 -38 -34 -31 -24 -30 -38 -23 -35 -10 -32 -39 -22 -31 -34 -33 -40 -26 -32 -37 -31 -29 -33 -28 -30 -30 -29 -38 -44 -27 -37 -29 -29 -31 -25 -26 -33 -42 -54 -43 -61 -62 -63 -60 -58 -59 -62 -63 -57 -54 -50 -64 -48 -53 -48 -63 -55 -58 -49 -76 -59 -52 -58 -62 -65 -60 -70 -54 -60 -61 -46 -52 -57 -61 -60 -67 -65 -56 -52 -50 -66 -58 -62 -60 -64 -52 -54 -55 -65 -77 -52 -64 -62 -69 -60 -61 -64 -56 -48 -62 -54 -64 20 12 7 26 21 19 7 0 -2 11 19 5 15 20 4 8 7 18 18 10 14 14 7 11 16 10 14 3 20 13 4 6 4 15 10 9 9 10 4 16 19 7 8 1 9 8 18 15 20 12 9 0 9 14 31 14 27 14 13 16 17 12 16 17
            768
            1 2 1 3 4 3 -2 4 2 10 -12 -7 -20 -4 -72 8 3 -1 -2 3 -19 17 -41 -5 5 3 12 -4 -11 10 -24 5 6 1 -11 2 -12 19 -33 10 1 5 5 -5 3 -3 -23 3 1 -4 -5 -4 -2 -6 -29 6 4 4 2 -4 4 1 1 0 -21 -20 -9 -50 -37 -49 -10 1 -18 -38 -19 -7 -47 -63 -47 -45 -12 -20 -33 -42 -15 -42 -27 -10 -31 -6 -23 -25 -19 -26 -27 -3 -32 -46 -28 -18 -30 1 -7 -9 -18 1 -21 -27 -34 -6 4 -22 -26 -5 -38 -21 -25 1 -21 -22 2 -26 10 13 -41 -11 -12 -12 -1 -8 -48 -16 -31 -9 -17 -34 -33 -11 -30 -34 -15 -40 -18 -7 -67 -20 -30 -17 -28 -34 -27 -38 -31 -27 -21 -35 -35 -75 -33 -55 -43 -24 -47 -13 -50 -40 -49 0 -24 -35 -20 -35 -28 -18 -33 -10 -12 -31 -22 -24 -26 -23 -33 -30 -46 -14 -35 -22 -36 -40 -26 -2 -32 -42 -27 -38 -35 -39 -25 -34 -39 -48 -55 -62 -63 -44 -62 -60 -25 -21 -29 -34 -39 -28 -50 -41 -13 -29 -20 -32 -41 -21 -21 -7 -20 -25 -24 -36 -40 -45 -37 -16 -36 -37 -37 -16 -33 -10 -31 -24 -35 -26 -43 -30 -38 -28 -39 -34 -26 -28 -28 -27 -22 -19 -34 -18 -69 -53 -33 -77 -66 -59 -83 -53 -52 -101 -68 -67 -51 -60 -61 -75 -77 -51 -71 -44 -40 -34 -45 -58 -55 -74 -48 -70 -63 -67 -42 -67 -73 -32 -71 -45 -76 -46 -57 -61 -81 -82 -54 -66 -52 -44 -41 -60 -39 -87 -54 -66 -61 -58 -51 -40 -46 -50 -58 -62 -57 -85 -45 -94 18 -22 8 8 4 12 23 -20 -2 11 16 -17 18 22 -19 5 19 -10 -10 -20 -5 11 -9 8 15 21 -3 -5 -8 11 3 -14 -20 -5 -11 11 -26 -5 -14 22 -8 4 -5 -7 -17 -28 -10 4 7 6 4 7 0 13 13 1 -4 8 -21 32 17 16 25 15 0 -3 3 -3 0 0 -3 2 8 -10 11 2 -1 -5 12 -2 7 18 0 21 6 18 5 4 4 11 -5 14 8 16 -3 3 20 -3 7 -11 -6 -2 9 21 4 12 7 6 5 2 1 -12 20 0 10 23 -4 -3 -5 -4 -1 -3 -3 -2 -2 -1 -2 -3 31 28 33 49 29 11 -1 -12 25 0 -11 -11 40 12 17 -34 21 23 8 19 8 34 20 10 35 -5 34 18 29 4 28 36 26 39 34 10 26 3 15 25 -3 32 48 29 4 11 35 5 44 -4 21 28 40 17 27 23 1 6 17 31 31 29 17 26 -8 42 22 -8 35 17 46 21 27 12 25 16 5 5 22 42 36 22 19 20 32 8 39 9 34 17 29 33 28 36 10 38 -3 28 32 25 18 34 18 7 31 54 19 29 27 37 20 31 -2 25 7 11 0 -8 23 36 18 25 11 10 39 45 39 16 27 42 14 26 21 33 19 22 36 22 63 14 41 23 40 57 6 21 10 25 38 26 15 30 16 9 25 -15 5 26 39 9 26 15 20 22 21 38 36 56 54 49 26 30 28 31 54 47 26 3 34 25 28 16 37 21 -2 15 12 17 39 40 56 32 71 56 51 52 58 52 54 16 54 59 64 29 56 30 62 45 29 34 58 49 70 77 61 39 42 78 63 25 67 47 58 68 -2 32 57 36 50 78 62 59 92 58 57 56 65 51 12 56 26 41 42 37 70 34 64 47 50 54 56 55 35 26 70 32 13 13 1 8 -3 4 -5 -5 -17 15 -4 7 -4 -13 -4 -2 13 8 10 -2 4 5 4 -11 0 15 25 10 19 18 3 -13 -2 -8 17 9 2 12 -8 4 -28 -10 30 17 18 9 11 -10 35 17 38 6 -27 -10 9 6 -44 13 -12 7 -19 10 -18 12
            768
            4 1 -3 -3 2 3 -1 1 -9 -5 -47 23 5 -24 -18 11 -26 23 -21 16 18 5 18 1 -14 16 -19 10 -18 -29 10 -3 -8 15 -21 6 -19 -19 9 -6 -4 11 -21 9 -31 -12 -1 -10 -12 10 -19 -3 0 -18 -3 -11 0 2 -4 -4 4 1 0 1 -6 -12 -5 -26 -10 -17 -15 -11 -24 -34 -20 -4 -18 -38 -41 -4 -17 -6 -18 -32 -27 8 -38 -10 -2 -15 -24 -25 -12 -24 0 -15 9 -22 -10 -26 -12 -8 -49 4 -19 -20 0 -3 -24 -8 -18 -18 2 -18 -12 -7 -28 -5 3 -29 -10 -16 -19 0 -16 -6 -15 -12 -26 -26 -30 -25 -9 -27 -44 6 -3 -36 -10 -24 -19 -47 -47 -32 -21 -7 -5 -20 -33 -22 -8 -57 -17 -9 -17 -35 -37 -19 -19 0 -27 -12 -18 -21 -26 -18 -3 -44 -22 -20 -6 -13 -11 -29 -23 -25 1 -21 5 -12 -18 -28 -28 -39 -20 -33 -11 3 1 -18 -18 -26 -34 -21 -50 -15 -35 -53 -30 -35 -39 -37 -38 -35 -53 -57 -34 -23 -6 -31 -29 -15 -52 -59 -24 -43 -27 -15 -39 6 -29 -33 -8 -26 -28 -36 -32 -26 -45 -51 -41 -23 -36 -24 -39 -40 -42 -45 -32 -15 -29 -20 -50 -22 -37 -42 -37 -8 -36 -32 -42 -21 -40 -47 -39 -51 -47 -52 -48 -51 -82 -42 -77 -34 -77 -57 -63 -72 -98 -41 -61 -77 -53 -19 -38 -54 -50 -45 -48 -35 -99 -65 -61 -52 -65 -60 -39 -27 -31 -52 -80 -49 -41 -66 -54 -30 -70 -63 -73 -28 -45 -44 -43 -53 -58 -69 -35 -40 -55 -66 -65 -104 -79 -83 -59 -41 -61 -57 -65 -52 8 8 7 21 -2 1 11 7 -9 17 10 1 16 3 7 1 20 17 20 11 -4 -7 -11 13 24 12 -3 20 7 3 17 -14 26 5 2 9 1 -6 11 3 -18 -6 -3 1 4 -1 15 20 -20 -22 -11 15 -1 -13 -3 5 -5 20 6 7 -3 6 5 13 -2 -3 -1 -1 0 3 2 4 17 -18 -14 17 -3 1 -4 2 -1 12 22 19 1 5 5 8 10 -3 14 24 8 6 9 12 9 19 9 18 0 -8 17 8 13 20 14 30 16 14 14 3 -3 16 13 20 23 3 -4 16 1 2 0 5 0 0 -1 2 -21 21 8 -6 -23 27 -8 27 16 10 -4 37 10 32 4 4 7 13 12 22 23 0 27 47 27 12 19 31 24 31 50 10 6 33 11 22 24 15 3 23 -19 14 28 21 13 15 16 6 17 58 38 37 32 11 26 -1 8 26 -8 35 -7 32 25 16 30 31 25 7 32 8 35 36 22 -13 30 26 15 2 31 36 19 25 3 42 18 7 11 43 16 51 34 44 19 20 20 28 34 5 24 29 21 3 26 26 18 13 42 18 3 11 14 28 -2 23 27 36 2 3 27 11 21 12 6 13 5 36 13 3 24 41 37 10 48 31 47 33 51 19 27 38 31 50 38 48 10 23 33 26 36 29 20 30 19 18 28 12 22 49 27 18 48 49 33 10 42 35 42 50 17 26 44 10 38 39 20 16 28 21 29 27 38 32 60 49 31 23 34 26 27 33 26 32 60 35 46 60 46 77 47 82 66 92 30 80 41 59 40 47 46 38 62 63 43 50 59 76 65 57 46 61 49 55 55 65 64 66 62 64 55 41 57 52 13 46 76 61 57 48 56 54 55 64 69 69 77 63 61 31 37 61 69 60 37 46 46 27 1 14 -5 8 16 -12 4 -1 16 0 -3 13 9 3 -4 -4 17 6 -3 8 11 5 2 3 -3 15 14 20 -1 6 2 13 -26 20 13 18 10 -15 9 -3 -14 7 17 4 7 -1 16 -2 5 -24 -4 -14 -6 -4 2 -8 -16 14 -10 11 11 36 0 -9
            768
            -2 1 -3 -4 -2 2 1 3 18 -33 -13 -2 -5 -15 2 -1 -6 15 10 -7 -19 -5 -20 -5 -12 -8 0 8 -17 -5 6 -1 -2 -6 -7 -17 -13 -7 5 -4 -4 -10 3 -4 -37 -17 -9 -1 1 -7 -5 -1 -2 -14 -14 -8 -3 1 -3 4 2 -3 1 -2 -7 -19 -3 -12 -18 15 -29 6 -13 -28 -79 -39 -37 -52 -3 -22 -26 -20 -41 -40 -17 -36 -27 -14 -48 -49 -50 -15 -42 -11 -10 -7 -13 -30 -28 -26 -18 -31 -25 -50 -17 -18 -14 -9 -41 -15 -13 -21 -9 2 -16 -15 -9 -27 -4 4 -11 2 -22 -10 0 -14 -13 -15 -27 -29 -1 -21 -12 -36 -20 2 -27 5 -29 -19 -4 -37 -3 -45 -37 -24 -38 -24 -7 -28 -51 -45 -8 -50 -22 -2 -12 -15 -18 -18 -24 -10 -26 -31 -26 -20 -40 -11 -16 -30 -22 -26 -8 -13 -21 -8 4 -31 -9 -31 -16 -38 -22 -11 10 0 -32 -25 -12 -6 -27 -15 -34 -27 -36 -30 -39 -29 -31 -28 -32 -36 -17 -32 -18 -36 -36 -32 -38 -39 -2 -26 -15 -36 -29 -38 -29 -27 -34 -24 -24 -32 2 -17 -44 -42 -33 -29 -29 -49 -14 -20 -51 -22 -52 -28 -25 -27 -29 -45 -43 -25 -32 -25 -20 -19 -32 -50 -32 -39 -33 -28 -31 -36 -31 -36 -48 -43 -62 -43 -52 -51 -42 -68 -68 -63 -60 -59 -65 -63 -46 -44 -62 -58 -62 -32 -71 -46 -71 -65 -53 -44 -35 -45 -51 -50 -47 -57 -55 -66 -49 -50 -40 -78 -59 -61 -57 -38 -58 -54 -61 -44 -50 -56 -45 -70 -54 -67 -59 -64 -69 -58 -47 -41 -78 -56 -37 -38 -69 -63 -5 9 -36 -38 28 1 9 25 -15 -17 22 -7 -6 -4 21 -16 -3 21 -16 5 15 6 13 7 20 -6 -12 -18 14 -11 3 -8 10 15 -16 8 11 4 15 -6 17 1 4 5 22 0 14 13 9 19 24 13 19 18 6 -10 -19 -22 2 -15 12 3 17 2 0 3 3 -4 -1 -4 -4 -2 6 17 6 0 2 7 6 -2 12 -27 11 7 2 11 9 1 3 -17 2 -4 13 7 23 1 3 14 -13 20 -2 -32 -25 14 -2 0 12 -13 4 8 -9 13 6 4 -8 10 4 -10 30 8 0 1 1 -4 3 -3 -1 1 4 19 25 21 32 14 12 13 41 7 24 19 -1 44 16 30 17 36 16 34 16 23 24 32 26 17 20 7 31 1 20 24 19 12 44 25 21 38 45 31 43 23 11 14 45 18 11 19 11 19 0 43 10 12 17 8 29 20 11 12 -13 -6 9 5 8 19 3 7 18 39 25 14 28 17 14 22 24 10 23 2 33 29 17 20 2 49 -5 -4 22 33 14 -6 22 26 35 11 49 22 8 8 1 19 23 40 8 20 27 27 42 31 22 23 29 24 7 12 13 -7 18 14 9 12 40 38 32 28 23 13 30 43 32 36 26 43 32 33 39 43 29 46 51 33 6 9 40 48 31 31 19 38 15 30 61 36 34 31 12 25 50 39 39 37 39 61 44 21 11 39 41 49 14 48 24 56 38 26 21 38 46 48 37 45 -29 -2 34 49 40 38 13 35 41 50 49 45 66 49 55 54 73 57 58 73 58 44 47 65 44 31 56 73 68 33 74 55 39 49 53 72 62 76 82 39 69 52 51 74 62 53 61 40 70 67 70 66 68 54 39 38 34 64 70 25 82 72 71 12 36 25 61 51 29 32 75 54 62 53 4 6 12 -9 8 -19 13 6 -7 -7 13 6 -8 -7 16 21 -14 7 2 -9 -7 -1 10 18 1 11 15 18 -5 -8 10 -10 -15 0 6 24 19 14 -3 -31 9 -11 -1 3 18 13 20 9 13 14 7 5 9 24 11 -18 18 -3 4 -1 15 -28 3 -3
            768
            3 2 -2 1 -2 -4 4 3 -5 8 0 12 3 12 -9 21 3 8 4 11 1 -3 13 1 9 6 4 2 9 -2 6 10 12 -2 6 3 21 6 17 7 9 3 10 19 16 21 1 8 7 10 18 6 -4 14 13 10 3 5 -4 1 -2 -3 -4 2 22 12 19 26 27 9 16 3 16 20 18 15 15 26 24 12 12 25 1 26 15 15 7 40 16 29 20 21 21 14 21 4 14 22 28 35 31 23 25 17 22 7 28 27 19 17 -3 20 -3 16 25 10 2 24 8 9 16 27 19 -4 9 14 34 26 21 18 24 18 29 34 18 14 31 29 13 28 26 9 35 5 9 22 24 15 20 15 27 13 4 29 39 18 11 24 10 21 20 31 22 23 25 25 14 21 15 25 20 33 15 25 18 45 12 21 33 23 27 32 26 34 17 20 18 22 43 28 24 16 30 26 28 29 32 34 26 33 24 35 43 39 35 30 39 33 22 45 25 31 31 31 30 34 25 30 48 31 37 40 34 33 27 32 28 32 39 25 35 29 37 30 35 35 31 39 23 31 27 26 29 38 29 40 20 42 23 31 32 32 33 31 26 29 57 72 50 62 65 56 58 56 60 50 63 60 56 52 58 61 59 67 60 61 50 63 54 64 51 72 51 49 66 69 45 64 59 63 69 80 67 54 54 51 66 61 55 58 56 66 58 56 60 46 50 54 62 55 68 61 56 48 56 64 49 61 61 79 14 1 15 0 18 7 22 10 -2 15 27 3 -18 13 18 1 7 19 16 -1 17 13 18 6 17 6 16 7 24 11 11 11 1 4 8 3 -8 7 5 4 16 9 16 5 2 1 13 0 13 23 14 6 -1 11 18 19 4 32 -9 7 2 -3 11 1 4 -4 2 0 -1 -5 0 -4 -2 -6 -5 8 -2 -5 2 -1 -6 -5 -6 -6 -4 -9 -2 -8 -5 -8 -9 -6 -14 -14 -6 -14 -3 -7 1 -10 -6 -4 -6 -10 3 -12 10 -8 -5 6 3 -21 -1 -15 -14 -6 -4 -1 -8 -11 -3 -4 -2 -3 -4 3 2 4 -17 -25 -24 -8 -12 -33 21 -12 -16 -9 -15 -4 -19 -25 -15 -27 -4 -21 -25 -21 -11 -27 -2 -31 -21 -29 -29 -16 -17 -25 -16 -20 -41 -34 -40 -39 -27 -26 -29 -12 -11 -17 -33 -24 -27 -21 -45 -3 -9 -20 -17 -30 -16 -16 -22 -11 -17 -38 -20 -7 -23 -5 -18 -13 -15 -12 -23 -18 -4 -23 -14 -16 -33 -19 -18 -17 -25 1 -31 -32 -17 -30 -24 -9 -24 -32 -26 -34 -13 -21 -36 -24 -19 -28 -14 -26 -17 -31 -33 -19 -39 -6 -21 -12 -34 -33 -40 -17 -21 -21 -19 -17 -24 -14 -22 -20 -25 -41 -27 -28 -27 -24 -25 -22 -18 -29 -4 -16 -27 -33 -31 -31 -21 -26 -35 -21 -29 -29 -28 -34 -38 -24 -27 -26 -28 -33 -33 -21 -22 -31 -31 -26 -34 -25 -32 -31 -35 -18 -35 -27 -19 -19 -27 -38 -27 -29 -39 -22 -18 -27 -30 -36 -31 -28 -24 -23 -28 -33 -41 -35 -24 -32 -21 -20 -24 -32 -25 -27 -46 -29 -8 -27 -63 -61 -63 -55 -71 -55 -49 -54 -50 -71 -61 -55 -56 -52 -67 -38 -61 -64 -64 -60 -54 -59 -74 -50 -59 -45 -47 -57 -52 -54 -59 -58 -66 -62 -66 -53 -41 -69 -54 -44 -82 -74 -69 -59 -49 -43 -56 -48 -47 -68 -62 -64 -55 -59 -54 -57 -78 -59 -62 -50 -50 -46 -50 -67 -11 22 -7 -13 12 -2 7 -1 4 4 -6 23 7 4 2 16 5 2 13 15 16 2 9 6 11 6 14 12 10 0 4 13 14 12 8 10 12 9 9 20 6 16 -6 7 13 6 12 19 12 15 23 20 9 23 10 21 9 24 9 11 24 17 21 13
            768
            0 -3 4 -2 2 -3 4 2 -9 -24 -17 -17 -18 -27 -9 0 -9 -5 1 3 -4 -4 -10 -11 10 -10 3 11 -6 -6 3 -21 2 -3 8 -7 -19 -5 -3 -4 10 -8 10 -6 -14 -16 5 -9 1 -11 -10 -24 4 -16 -6 -3 0 -4 2 -2 -1 -2 -3 -4 -25 -47 -19 -36 -38 -7 -2 5 -28 -9 -16 -50 -40 -21 -32 -23 -8 -26 -56 -29 -26 -16 -24 -23 -12 -14 -43 -55 -13 -14 -25 -8 -18 -37 -26 -44 -28 -43 -12 -22 -4 -17 -18 -21 -24 -17 -11 -13 -22 -17 -28 -6 -8 -22 -32 29 -17 -17 -10 14 -21 -2 -10 2 -38 -23 -17 -31 -61 -43 -30 -20 -26 -36 -25 -23 -22 -27 -23 -45 -29 -21 -14 -48 -39 -22 -31 -28 -33 -25 -19 -28 -24 -33 -22 -22 -14 -36 -30 -12 -14 -18 -16 -15 -21 -38 -13 -7 -22 -17 -32 -21 -37 -24 -31 -18 -16 -18 -18 -19 -13 -29 -25 -4 -6 -25 -26 -14 -22 -38 -20 -49 -37 -36 -43 -45 -21 -34 -30 -30 -39 -36 -31 -45 -20 -20 -37 -29 -19 -39 -37 -37 -25 -17 -23 -21 -29 -33 -33 -21 -25 -28 -17 -24 -28 -14 -25 -36 -41 -23 -33 -45 -38 -26 -49 -37 -32 -30 -24 -48 -28 -33 -31 -17 -26 -34 -40 -35 -17 -28 -17 -9 -47 -58 -48 -52 -46 -56 -48 -56 -56 -72 -61 -57 -51 -53 -56 -86 -51 -52 -42 -51 -49 -71 -48 -44 -30 -81 -58 -69 -55 -42 -76 -73 -60 -59 -67 -87 -51 -44 -59 -59 -62 -73 -57 -52 -69 -62 -45 -64 -55 -64 -65 -47 -48 -69 -59 -35 -53 -78 -58 -50 -34 -44 -43 -48 32 5 10 -12 -34 8 18 13 -6 30 2 22 24 -5 -5 -20 -3 9 3 6 -11 -2 -6 -10 -2 19 9 -5 22 -21 4 2 13 0 12 8 20 7 10 -14 -2 -2 -6 19 4 13 7 16 -14 -24 18 1 21 -7 -10 12 -29 15 7 21 12 19 -7 8 -4 3 -3 -2 0 3 5 -4 8 11 18 -2 1 15 8 15 10 10 27 10 13 13 8 -6 11 4 -2 13 15 19 2 12 17 -5 21 9 20 8 23 5 -9 15 -9 19 15 6 -8 0 13 14 -8 3 28 3 -13 1 0 0 2 2 0 3 -3 1 29 9 -11 -21 15 13 12 -21 -7 31 7 29 18 16 17 16 16 30 30 29 29 25 21 24 9 27 37 34 10 25 17 10 15 37 16 42 38 39 22 7 29 30 22 32 21 6 15 10 7 32 18 25 22 27 41 11 39 21 -8 40 23 11 17 -8 14 30 27 28 21 35 23 17 12 35 38 24 22 36 21 45 11 51 22 32 30 29 39 5 27 16 38 27 49 27 29 40 50 46 27 18 30 37 20 26 15 32 27 24 29 21 35 13 26 30 48 50 12 14 -1 21 16 11 37 36 26 21 37 18 21 20 42 38 26 27 25 19 29 27 20 37 26 34 19 12 21 29 31 25 38 23 16 27 32 37 31 30 38 18 27 29 8 21 13 35 33 23 37 39 33 28 28 41 20 37 38 30 50 31 40 50 28 52 48 22 31 20 44 33 17 32 29 18 34 47 16 50 50 71 75 74 45 27 59 53 43 55 57 42 55 59 34 54 63 49 50 51 56 61 45 57 34 47 62 66 70 61 53 60 72 63 47 50 32 40 63 48 67 58 65 50 59 58 26 49 52 51 50 51 59 82 33 32 63 60 59 56 0 10 0 8 -6 4 7 12 8 8 -17 9 -2 1 4 -3 -14 -26 -5 -6 15 -1 -2 1 1 18 4 -1 -12 15 1 23 11 24 16 11 -3 -11 0 19 -2 -16 9 0 -10 -11 -9 17 -4 -7 6 26 25 9 0 23 8 -8 -4 -9 16 -6 4 0
            768
            -1 3 -2 -2 -4 -4 -1 -1 4 -10 9 13 -25 14 30 8 10 -20 22 14 -13 -8 -7 2 5 9 -1 5 -6 -9 -38 12 9 10 2 -13 -10 -3 -26 18 20 8 12 -9 6 3 -21 8 1 3 -1 3 2 7 -22 10 -4 -2 0 -1 2 5 0 -3 -1 -7 -22 1 -85 -8 -18 -4 5 -50 -33 -28 2 -13 -15 -14 0 -48 -15 -39 -30 10 2 -30 -18 -13 -20 -13 -39 -28 -71 -24 -24 17 -22 -6 -37 -25 -38 -13 22 -9 -24 -32 -30 -16 -32 -19 19 -3 -17 -28 -29 -42 5 -65 -25 22 -21 -64 -5 -48 -2 -24 -29 -6 -46 5 -11 -1 12 -24 2 -25 -11 -4 -24 -28 -11 -5 -19 -20 -12 -41 -4 -14 -21 -31 -29 -1 5 -17 -71 -7 -22 -16 -15 17 -1 -18 -7 -24 -22 -23 -2 -38 -25 -28 -23 -19 -6 -18 -19 18 -25 -8 -14 -29 -4 -6 -12 -28 -12 -50 -3 -10 -8 -11 -18 -21 -28 -36 -29 -39 -30 -26 -23 -10 -18 -21 -43 -31 -48 -30 -19 -28 -33 -35 -33 -50 -44 -47 -22 -37 -42 -35 -40 -26 -41 -30 -7 -19 -24 -24 -42 -31 -44 -22 -22 -8 -27 -19 -35 -29 -30 -43 -21 -39 -38 -36 -33 -35 -55 -22 -38 -40 -43 -60 -59 -55 -54 -36 -42 -56 -33 -73 -36 -46 -66 -56 -67 -43 -45 -70 -79 -57 -66 -43 -36 -46 -43 -49 -54 -32 -42 -51 -41 -45 -39 -44 -43 -76 -61 -35 -55 -39 -48 -43 -34 -85 -34 -72 -58 -73 -36 -59 -55 -68 -69 -75 -60 -51 -64 -64 -44 -80 -52 -83 -83 -67 -51 -80 -100 -60 -27 -46 34 -62 12 4 8 -20 10 -13 12 19 -15 23 1 -10 16 4 -16 16 -7 -9 -4 -33 -13 -2 12 9 6 3 -8 -9 -19 48 5 -1 -4 -7 4 -6 -9 3 12 0 5 -4 -8 7 2 -13 -2 7 -5 7 -14 2 2 16 16 -9 2 10 1 -3 -5 8 4 2 4 -4 -1 1 -2 -2 23 16 18 4 3 0 5 9 0 -1 -7 2 22 8 0 3 3 8 -1 4 -4 12 22 -10 -1 18 16 6 10 -2 -25 4 17 16 10 5 13 13 0 -7 15 8 11 -27 -2 -30 -3 -1 -1 -4 4 -4 1 3 -4 -3 22 19 -14 20 -1 42 -2 3 40 23 10 24 8 24 13 0 14 49 13 11 35 9 26 44 20 34 32 16 26 5 12 2 19 19 35 17 22 42 17 23 5 42 42 25 19 23 2 14 -3 26 12 -35 19 17 31 -11 27 -3 38 5 19 42 21 13 21 11 19 11 12 4 20 55 8 18 58 23 27 19 24 43 26 5 31 31 14 19 21 29 14 34 5 37 17 30 6 27 23 55 24 22 28 -15 18 34 10 9 30 8 20 22 33 29 8 -4 40 20 8 19 13 13 20 28 -8 -8 12 28 -4 -3 2 32 30 29 42 39 41 38 30 -2 3 16 12 29 24 35 23 30 37 58 34 21 41 37 19 20 7 55 44 -2 27 14 10 50 10 30 -17 38 53 44 34 -11 42 31 19 34 54 30 24 24 25 55 47 32 39 43 13 7 42 28 42 23 45 43 45 55 39 46 44 68 62 45 86 34 62 56 56 55 64 64 49 52 65 61 61 70 46 38 39 52 55 49 68 64 46 15 55 36 67 69 60 65 50 29 32 76 32 32 73 35 66 63 72 59 51 72 71 74 27 44 54 41 61 29 34 85 38 41 16 -15 6 -1 2 -12 17 -6 21 15 6 0 4 9 1 -9 -1 -8 -3 11 -1 -6 -4 -14 11 -11 2 2 3 -6 -6 -10 27 10 -3 5 12 5 8 1 -33 11 -3 -4 5 -22 -6 -54 -7 -24 -27 -31 4 -21 -50 -20 -21 1 10 -3 1 3 -5 -23
            768
            -3 0 -2 -3 0 3 -1 -2 -15 8 8 6 6 -33 -19 -5 -24 -18 -4 -21 11 -13 -21 -6 -22 -1 4 8 -14 -13 -10 10 -6 -5 -2 -25 -3 -12 -8 -1 -17 -5 -3 -21 16 -27 -13 -6 -10 -12 9 -30 1 -25 -9 -7 3 -4 1 -2 3 3 -5 -2 5 -15 -6 7 -3 -6 -13 -24 -27 7 10 -10 -13 -15 6 -14 -25 -9 -23 -15 -51 0 9 -16 3 -23 -22 -13 -26 -22 -9 -6 6 -19 -38 -8 -26 -8 -15 -8 -22 -7 -9 -25 -8 -19 -10 -3 6 -35 -47 -5 -9 -37 -35 43 -22 10 -4 -14 1 -8 5 14 -48 -11 -40 -18 -28 -27 -54 2 -50 -23 -29 -26 -25 -10 2 -11 -44 -54 -15 -20 -22 -15 -14 6 -41 -16 -17 -16 -8 -27 -20 -18 -20 -7 -32 -24 -16 -19 -31 -18 -39 -17 -23 -10 -17 6 -28 6 -24 -18 -9 -16 -26 -32 -26 -17 -21 -2 -29 -12 8 -24 -16 -42 -20 -30 -30 -29 -23 -18 -21 -33 -23 -35 -23 -28 -24 -21 -47 -23 -35 -37 -27 -32 -14 -36 -25 -41 -11 5 3 -8 -4 -19 1 4 -32 -14 -27 -13 -17 -31 -31 -27 -7 -16 -16 -24 -33 -23 -44 -29 -26 -44 -17 -39 -34 -37 -27 -22 -6 -14 -20 -26 -30 -32 -8 -13 -26 -43 -45 -49 -67 -41 -55 -37 -1 -22 -65 -12 -35 -44 -44 -21 -19 -64 -31 -27 -52 -50 -25 -40 -21 -25 -51 -25 -54 -40 -48 -38 -15 -43 -32 -38 -46 -42 -66 -43 -22 -28 -49 -42 -36 -41 -57 -78 -61 -49 -23 -37 -45 -43 -67 -29 -34 -56 -28 -37 -50 -50 -59 -49 -3 -2 0 23 4 35 -21 38 15 3 6 3 23 9 12 5 -23 26 2 7 23 15 9 30 -14 -2 16 19 20 24 -4 -1 32 7 25 20 10 14 10 23 -4 7 6 -1 17 12 -7 26 10 -20 -19 10 3 -9 -27 -23 -2 -37 -9 9 -6 -6 -29 -21 1 4 -3 -4 3 4 1 -3 10 -1 5 19 4 -3 2 4 25 -1 13 5 40 19 9 2 17 16 8 9 12 25 3 2 20 12 -16 18 19 23 22 5 22 -9 7 14 38 -5 6 13 27 4 0 20 -21 -12 28 19 0 1 3 0 -1 4 -3 -3 5 -36 11 29 19 20 9 23 28 -5 27 20 -36 -14 13 -5 1 16 44 34 27 13 9 11 13 32 26 43 28 42 23 20 39 10 30 12 4 16 4 0 48 17 25 45 19 34 10 34 -7 2 -1 14 10 16 25 15 19 5 -20 15 52 18 -10 15 5 11 19 30 18 28 36 21 33 10 51 20 25 21 10 7 39 24 50 28 24 34 19 13 66 54 31 41 24 35 29 30 29 31 16 38 43 37 42 33 45 8 25 48 40 19 18 14 37 24 7 31 17 26 37 17 29 20 18 48 29 40 47 21 36 44 16 25 34 44 65 30 36 39 43 39 21 40 19 25 32 33 49 38 22 32 56 44 17 51 32 34 20 40 59 21 15 47 31 28 41 31 14 36 25 26 35 20 30 18 29 28 42 42 45 43 26 33 54 49 34 30 33 38 45 51 41 34 55 61 61 47 64 48 68 8 54 52 69 54 56 61 61 82 61 61 99 67 71 57 72 39 61 70 75 76 77 51 78 67 53 56 61 60 56 48 58 77 47 81 38 63 79 42 57 81 83 61 70 60 50 80 66 55 48 63 93 69 48 72 55 38 -21 23 -10 -22 -3 4 11 -6 1 -2 -5 -22 -9 6 -1 8 12 9 -3 -37 -18 -10 -9 12 10 23 -14 5 -5 13 1 26 13 23 -19 -6 2 9 -14 -2 11 33 -9 0 1 16 2 -8 7 -28 14 -4 -2 -6 25 -3 -22 -17 -22 -15 24 8 -27 -4
            768
            2 0 1 0 1 4 0 4 -34 -14 -1 -2 -23 -13 -5 -1 -8 -10 -8 1 -27 2 -2 8 -11 -15 9 -5 4 -21 -15 -16 1 -18 6 -7 1 -23 -2 -4 -1 -25 -12 -7 -11 -21 4 -16 2 -29 -4 -7 1 -20 -3 -8 1 0 -1 2 -2 1 1 4 -33 -4 -24 -15 -56 -8 -6 -11 14 6 -22 -32 -13 -8 -20 -2 -29 -12 -4 -9 -30 -27 -15 -3 -5 0 -19 -21 -16 -7 -12 -37 0 -16 -6 -33 -44 -23 4 6 -26 -16 -20 -25 -23 -33 -26 -48 -12 -9 -7 -30 -23 -3 -1 -1 -48 -42 -8 -9 -8 -17 -34 -33 -33 -12 -3 -10 -15 -15 -17 -21 -2 3 12 -18 -23 -2 -14 -16 -22 -19 -7 -14 -6 -35 -20 -9 -13 -12 -10 -27 7 -5 -28 -30 -16 -41 -2 -16 -25 -7 -4 -26 -17 -2 -25 -26 -37 -15 -5 -56 -16 -11 -21 -3 -14 -8 -18 6 -1 -12 -10 -12 -28 -22 -21 -39 -47 -8 -22 -63 -64 -38 -45 -31 -39 -31 -31 -48 -36 -22 -36 -23 -25 -9 -17 -50 -45 -13 -25 -26 -36 -32 -34 -34 -40 -35 -45 -42 -20 -41 -41 -37 -53 -24 -40 -41 -11 -43 -38 -59 -50 -28 -32 -21 -39 -36 -25 -38 -51 -56 -34 -29 -22 -35 -21 -25 -34 -33 -32 -32 -73 -56 -55 -72 -91 -62 -74 -78 -60 -46 -53 -66 -78 -103 -77 -56 -73 -66 -92 -54 -97 -62 -98 -61 -71 -82 -62 -87 -104 -78 -70 -59 -63 -74 -97 -84 -86 -58 -68 -49 -26 -66 -78 -88 -89 -92 -79 -85 -84 -77 -81 -91 -95 -71 -77 -95 -72 -74 -62 -82 -58 -60 -22 -86 12 16 26 -10 7 2 12 10 -7 -9 25 18 -8 -20 14 0 -25 3 -13 7 -6 13 5 7 6 -9 -7 -2 -6 -5 27 13 14 2 9 -10 -4 1 11 19 13 -13 -5 -4 0 -5 12 17 -14 23 -5 5 -3 2 4 16 43 34 32 22 16 14 29 22 -4 -4 1 -1 5 0 2 -1 10 9 23 1 1 18 14 1 9 2 -15 -1 12 13 9 11 17 3 4 12 -18 5 22 8 11 14 16 6 9 -18 -3 16 20 12 8 -14 14 4 35 3 2 19 19 13 13 -19 -11 5 3 -4 3 2 -3 -2 1 3 28 22 29 33 52 46 24 14 3 12 22 -1 8 36 -15 23 18 9 19 36 17 32 7 24 20 16 5 17 19 21 32 25 -6 17 15 10 3 23 37 22 17 35 14 14 37 -8 -33 13 26 -36 10 3 17 -14 35 13 24 13 -3 30 38 13 -1 9 2 19 4 -16 15 -16 -2 7 34 16 19 11 2 -21 3 -15 26 8 22 9 15 2 -2 4 37 3 11 17 -20 13 7 1 -1 -1 14 13 2 15 4 30 25 22 13 35 23 -2 37 17 13 14 16 -13 24 -19 23 4 9 13 14 2 36 6 -5 33 27 31 19 31 29 15 39 36 3 1 20 20 28 30 30 26 35 32 36 30 32 26 11 22 37 30 46 19 41 24 24 34 30 14 38 32 29 40 21 27 24 41 25 29 40 22 44 27 20 25 20 35 20 16 6 33 7 32 20 22 5 23 13 35 41 65 45 31 37 56 28 35 60 26 57 24 37 74 11 -6 57 30 34 44 49 34 27 45 57 50 34 64 21 68 28 -12 -21 20 58 45 47 40 10 64 38 66 41 42 59 39 45 38 57 49 53 -5 36 32 44 58 47 43 28 64 69 56 53 26 2 18 -4 17 0 6 -13 1 -17 25 19 0 14 13 -2 -3 11 22 6 15 8 19 9 5 -10 20 18 -7 14 19 15 7 8 0 10 -1 -4 23 -8 26 -35 17 -7 36 12 20 24 2 16 24 0 -2 6 22 10 25 7 -2 -14 8 -24 0 15 3
            768
